%YAML:1.0
---
opencv_ml_ann_mlp:
   format: 3
   layer_sizes: [ 180, 60, 20, 1 ]
   activation_function: SIGMOID_SYM
   f_param1: 6.6666666666666663e-01
   f_param2: 1.7159000000000000e+00
   min_val: -9.4999999999999996e-01
   max_val: 9.4999999999999996e-01
   min_val1: -9.7999999999999998e-01
   max_val1: 9.7999999999999998e-01
   training_params:
      train_method: BACKPROP
      dw_scale: 1.0000000000000001e-01
      moment_scale: 0.
      term_criteria:
         epsilon: 1.0000000000000000e-08
         iterations: 10000
   input_scale:
      - 2.0533308912539221e-03
      - -2.8109702212306624e+00
      - 3.7704635700250025e-02
      - -5.6326344157712960e-01
      - 3.5596732509159235e-02
      - -5.6317949735821193e-01
      - 4.0094655921042374e-02
      - -5.6355266377909563e-01
      - 4.0890796722163961e-02
      - -5.9579266355581095e-01
      - 5.0155463641917614e-02
      - -6.8310616689058223e-01
      - 4.4071147283006748e-02
      - -8.1906743859712450e-01
      - 3.7070894428423790e-02
      - -5.6513274839661343e-01
      - 3.6950584118406696e-02
      - -7.8157453665335264e-01
      - 4.3103218008725443e-02
      - -8.5934020164592473e-01
      - 3.8662467636073949e-02
      - -1.4158305999919862e+00
      - 3.8113203470555398e-02
      - -8.1916191495914914e-01
      - 4.0583892823239660e-02
      - -6.8808521649595678e-01
      - 4.3278468272325461e-02
      - -6.6812514041817839e-01
      - 4.0634893804902934e-02
      - -9.2089190527074627e-01
      - 4.5471557318895489e-02
      - -1.6788321452936552e+00
      - 5.9114705015029058e-02
      - -8.7786240841890240e-01
      - 3.1241477891978120e-02
      - -8.6866276424112243e-01
      - 8.3469598561768429e-02
      - -6.7932851673512662e-01
      - 4.7108327752043447e-02
      - -8.1181430663829812e-01
      - 1.1300612922549452e-01
      - -7.2440269483641417e-01
      - 1.5612183532879131e-01
      - -8.3400252603519964e-01
      - 7.9928986614459088e-02
      - -7.4433359553148926e-01
      - 1.3469405421552649e-01
      - -8.6562555025666343e-01
      - 3.4117438055539816e-02
      - -8.6769930761130543e-01
      - 6.1263067217046843e-02
      - -7.4705345727209260e-01
      - 1.9677601939099659e-01
      - -6.8761283840197385e-01
      - 1.2142624647346091e-01
      - -8.1445943098407014e-01
      - 2.5057520922603549e-01
      - -7.9731958776663581e-01
      - 2.8192268404679355e-01
      - -5.3223324246142878e-01
      - 7.0813734514708010e-03
      - -3.0749474646865766e+00
      - 6.4470335737649465e-01
      - -2.4250309772877324e-01
      - 2.2823833199055621e-01
      - -4.7857925474472385e-01
      - 4.9680889284476705e-02
      - -5.7928119478133211e-01
      - 2.2354052549356293e-01
      - -4.9128784196138803e-01
      - 1.4184646210851248e-01
      - -5.0405378889936248e-01
      - 1.2177330651280496e-01
      - -8.2007680884489909e-01
      - 1.9871686606690170e-01
      - -4.1566463727755582e-01
      - 4.1659085035089215e-02
      - -1.1686838427198498e+00
      - 4.1009486537705342e-01
      - -5.5494488663408603e-01
      - 2.7284295123133632e-02
      - -6.6664349623485231e-01
      - 1.2915900979170669e-01
      - -5.5369848693070589e-01
      - 4.5312658020877600e-01
      - -2.3603229611282828e-01
      - 8.2469716644992877e-02
      - -4.5257463767412759e-01
      - 1.3207676817279651e-01
      - -5.3052854738522393e-01
      - 3.5837600426248978e-02
      - -1.6914909020756168e+00
      - 6.1766092340419743e-02
      - -5.3713204256485314e-01
      - 6.5659122274956128e-02
      - -5.0897532654424449e-01
      - 9.2171502945807005e-02
      - -6.3754305121179755e-01
      - 8.7926446016021759e-02
      - -4.4276925924479871e-01
      - 4.7502927063611054e-02
      - -1.3866641904761448e+00
      - 5.3313458289575490e-02
      - -5.3044445426646447e-01
      - 1.6609801420255704e-01
      - -4.6984912274423624e-01
      - 6.0397347883645904e-02
      - -8.8869064019009869e-01
      - 2.4042130365423617e-02
      - -6.3291337073095300e-01
      - 6.3198013275659909e-02
      - -4.9260306678117582e-01
      - 7.2656385618505390e-02
      - -4.7737689449956827e-01
      - 5.1826138985185045e-02
      - -5.2153684409963996e-01
      - 7.2081573262172113e-02
      - -5.2290368615723537e-01
      - 6.5275641004279308e-02
      - -4.9299411233507173e-01
      - 3.1408532813759230e-02
      - -6.2117497389006093e-01
      - 4.7504428438950280e-02
      - -4.8637561594374784e-01
      - 5.0190551654463747e-02
      - -5.3436821279821256e-01
      - 3.4118402686637080e-02
      - -5.1544524670469405e-01
      - 1.9067511568171165e-02
      - -5.3684471917725551e-01
      - 1.7051951170148804e-02
      - -5.5332799347537909e-01
      - 2.5124608903315325e-02
      - -5.6418961216221530e-01
      - 2.1251926614402703e-02
      - -4.8692041646138878e-01
      - 1.2835146226018732e-02
      - -6.0365092660850084e-01
      - 1.0731060578499709e-02
      - -5.3784381908631362e-01
      - 8.1649640439764339e-03
      - -6.8606505726904532e-01
      - 7.7799960585416238e-03
      - -5.1137810993967625e-01
      - 5.2939309234279778e-03
      - -5.3514302445178097e-01
      - 5.2755640273917217e-03
      - -5.1027772055771481e-01
      - 3.9831461707920150e-03
      - -5.3206468640851823e-01
      - 5.6976116404718275e-03
      - -8.2038638067270808e-01
      - 6.1204964384080195e-03
      - -5.2124668240900751e-01
      - 4.9081497066470010e-03
      - -5.2711826757747338e-01
      - 6.1583132508030141e-03
      - -5.4357315517880489e-01
      - 1.4542274832370755e-02
      - -4.4979508063324120e-01
      - 1.8060109945224178e-02
      - -4.5373955123849918e-01
      - 2.2028025733742223e-02
      - -3.7893368834838626e-01
      - 3.2985661220035808e-02
      - -3.7361893440002841e-01
      - 2.8746459121579707e-02
      - -7.4739328555091866e-01
      - 2.3220148019853674e-02
      - -5.7932020671347462e-01
      - 1.2624127367376278e-02
      - -3.5536082078125608e-01
      - 2.0705550717740471e-02
      - -3.2176974586335727e-01
      - 2.3621020349399353e-02
      - -2.7998493845343086e-01
      - 2.1934396677676108e-02
      - -2.7500724968101659e-01
      - 2.0642208112669296e-02
      - -2.2410788736389842e-01
      - 1.2523697886921549e-02
      - -3.5807945938886223e+00
      - 1.6877617557189067e-02
      - -2.3311241497567101e-01
      - 2.0720427579324421e-02
      - -2.3311009070256267e-01
      - 2.9854643918792011e-02
      - -2.6129660824337231e-01
      - 2.2460477871844908e-02
      - -3.1918605709621800e-01
      - 4.9482470429407420e-02
      - -5.4208777747690273e-01
      - 3.1070015184357421e-02
      - -7.1220329403735516e-01
      - 6.3043469576996677e-02
      - -4.7147646743286048e-01
      - 1.7479945212118011e-02
      - -8.1369946794758519e-01
      - 5.1609387689214451e-03
      - -5.4361099231604215e-01
      - 2.3783763187183414e-03
      - -6.6761217221679192e-01
      - 2.5757403469292848e-03
      - -6.1573322427934718e-01
      - 2.6766980930646904e-03
      - -6.2938831200824930e-01
      - 2.6511055334197133e-03
      - -6.1287290243736625e-01
      - 3.6351877320366824e-03
      - -6.6015342717247805e-01
      - 4.1663073411937002e-03
      - -7.7394786138133820e-01
      - 5.5071406699994316e-03
      - -7.2690046491798310e-01
      - 6.1614930016470806e-03
      - -7.9230142322708730e-01
      - 6.2013136765978350e-03
      - -6.8822887181997738e-01
      - 6.7833730067550554e-03
      - -7.8542954271640142e-01
      - 7.8544215712203023e-03
      - -7.7756771918594947e-01
      - 7.5312793651657753e-03
      - -7.5245234774579817e-01
      - 6.3335740933543831e-03
      - -7.2027457674806161e-01
      - 6.7383036198479778e-03
      - -6.5370474566863612e-01
      - 5.1880886096897626e-03
      - -5.9539002010517661e-01
      - 3.6084681140478659e-03
      - -6.0473106943909705e-01
      - 3.6442512234318050e-03
      - -5.8076399734153561e-01
      - 3.4577306785357948e-03
      - -5.7041453390909536e-01
      - 2.0383164872560585e-03
      - -5.1677971894611030e-01
      - 1.4931644116831207e-03
      - -4.7388335187238045e-01
      - 2.1763329850153809e-03
      - -4.3791435787730232e-01
      - 1.6247858965522149e-02
      - -4.1469306093653779e-01
      - 9.0323270757340104e-02
      - -4.5308951620476112e-01
      - 2.2314664115391389e-01
      - -6.1541614438523351e-01
      - 8.2921027409425863e-01
      - -5.9126665313856674e-01
      - 8.6107443465433142e-01
      - -6.0477093320778219e-01
      - 7.2637393418449248e-01
      - -6.9194336543874435e-01
      - 3.4677898741065296e+00
      - -2.4567930300754717e-01
      - 3.4161670532138411e-01
      - -1.0436547052478982e+00
      - 2.7630158134619602e+00
      - -3.0559349211072651e-01
      - 2.1314568517082341e-01
      - -1.2966905699281084e+00
      - 2.2424204466148323e+00
      - -3.2344800529663487e-01
      - 1.2970246098333844e+00
      - -5.8835469049526612e-01
      - 3.0595210103938917e+00
      - -2.9628388989543292e-01
      - 9.9456897073949406e+00
      - -9.1244859700871025e-02
      - 2.4574414648940605e-02
      - -1.1804862417166173e+00
      - 7.7612484023114261e+00
      - -1.1471773887208531e-01
      - 3.3663273342263031e+00
      - -2.5050142242458728e-01
      - 1.6924789739390458e+00
      - -4.7272093665575798e-01
      - 4.4706519627412984e+00
      - -1.3671718540493266e-01
      - 6.2855100872488157e-01
      - -9.5147629761105923e-01
      - 1.4354260060046118e+00
      - -1.5802855111977379e-01
      - 1.1774632159983485e+00
      - -1.4763300261752993e-01
      - 6.1860689434346983e-01
      - -3.5218343577046679e-01
      - 3.4406164517397481e-01
      - -6.8672038863470197e-01
      - 3.2872523952963184e-01
      - -3.0359334048302389e-01
      - 1.9811015492568207e-01
      - -3.6532239578038622e-01
      - 1.0776087878906818e-01
      - -4.2022348808112164e-01
      - 4.1392292645664540e-02
      - -4.2734061153444497e-01
      - 1.7841856865400314e-02
      - -4.3319701095671492e-01
      - 6.1342629866822209e-03
      - -1.8906411325946140e+00
      - 8.1109769097937323e-03
      - -4.7221842990571289e-01
      - 7.3703532104086684e-03
      - -5.0734851862291719e-01
      - 6.8763905605629082e-03
      - -5.3753256710708142e-01
      - 6.4483371833345821e-03
      - -5.5538193794670121e-01
      - 6.3382327683029214e-03
      - -5.6158616014730456e-01
      - 7.1820004216225945e-03
      - -5.6286091377695036e-01
      - 7.3846665164346648e-03
      - -5.6224336606779324e-01
      - 7.3367865837534723e-03
      - -5.6466332707438416e-01
      - 8.8276386681271288e-03
      - -5.6247625915252031e-01
      - 8.2444073419043213e-03
      - -6.3544126761338182e-01
      - 9.4590184541611944e-03
      - -5.6260911138901570e-01
      - 1.0164527733516962e-02
      - -5.6081564305858544e-01
      - 9.7989271614106997e-03
      - -5.6004714381852716e-01
      - 1.0954067901191787e-02
      - -5.5996391142606095e-01
      - 1.1138971825434408e-02
      - -6.1295002760509698e-01
      - 1.2104796053635809e-02
      - -5.5776457045308125e-01
      - 1.2108628523719521e-02
      - -5.5914461990264452e-01
      - 1.2323673600162814e-02
      - -5.6160651389610461e-01
      - 1.4265053797670044e-02
      - -5.5569727918242684e-01
      - 1.5841115139355513e-02
      - -5.9044083028844507e-01
      - 1.5487247813987264e-02
      - -5.5266267505020605e-01
      - 1.6947144034501711e-02
      - -5.4238634829687349e-01
      - 2.0581924030095861e-02
      - -5.6325445817937669e-01
      - 2.2443988051859116e-02
      - -5.7789265464007078e-01
      - 1.6989010936534214e-02
      - -5.5107779511871080e-01
      - 2.6173629067451083e-02
      - -5.4853896718884865e-01
      - 2.6781303864901799e-02
      - -5.3351032699270473e-01
      - 3.1797760988956411e-02
      - -5.4793603530867852e-01
      - 3.3471990333859412e-02
      - -5.4969469956538441e-01
   output_scale:
      - 1.5789473684210527e+00
      - 1.5000000000000000e+00
   inv_output_scale:
      - 6.3333333333333330e-01
      - -9.4999999999999996e-01
   weights:
      -
         - -3.4577536517267894e-02
         - 2.8801343941530364e-02
         - 5.8111561436002442e-02
         - 5.2509395660754535e-02
         - 8.1292583637133820e-02
         - -3.7005272118113282e-02
         - -1.7144988197695731e-02
         - 3.1047412965829878e-02
         - -3.3989704180753554e-03
         - 4.2556786084595677e-02
         - 6.7029960996174490e-03
         - -5.5919218130891582e-02
         - 5.7825682219571406e-02
         - -3.7006253452879931e-02
         - -5.7563847210603182e-02
         - -5.9867005683661035e-03
         - -9.3933929963033125e-02
         - -4.2967198984668227e-02
         - 1.0241348677885233e-01
         - 1.0678160020485629e-01
         - 1.0329276793973086e-01
         - -3.7278959822042282e-02
         - 2.5775943096777363e-02
         - 4.9897384230381710e-02
         - 2.3136399682990232e-02
         - 2.1313751021942776e-02
         - -6.8282247621936271e-02
         - -2.4946281592905094e-02
         - -3.8879411277812387e-02
         - -4.3538687163325852e-02
         - -1.9575158053132129e-02
         - -4.0303718268070533e-02
         - 7.7755119546800991e-02
         - 8.6156529553734651e-02
         - -1.9345694292747847e-02
         - -5.0407211826177028e-03
         - -6.1581788166227225e-02
         - -9.4529904874962864e-02
         - -4.8399242437384644e-02
         - -3.3641877830209395e-02
         - 2.8047668649587746e-02
         - -5.4379309662894344e-02
         - -1.8241286195651359e-02
         - 5.6092371106325192e-03
         - -1.7249628313410360e-02
         - 4.7209180357801524e-03
         - 1.3115792325237758e-02
         - -6.6619444712645304e-02
         - 4.5366383062136861e-02
         - 6.0196664551328910e-02
         - 1.6725995680653999e-02
         - -5.3273787319986429e-03
         - 1.6675420893024293e-02
         - -4.2757605254231237e-02
         - -2.1945199164120126e-02
         - 7.3677436794428119e-02
         - 3.3400784168968509e-02
         - 4.6654570289702289e-02
         - -1.2948415995397727e-01
         - 5.4468496801738209e-02
         - 2.2111839256515248e-02
         - 1.7676341460659110e-02
         - 1.3409795219048766e-02
         - 2.9701078858223335e-02
         - 3.7733524808659809e-03
         - -2.6982171783472272e-02
         - 1.9426436381412185e-02
         - 4.2769765222669245e-02
         - 1.4068244738435444e-02
         - 1.1024617064273873e-02
         - -2.6835934394628148e-02
         - -5.1640745355328987e-03
         - 2.3334321478003354e-02
         - -6.3432290136163673e-03
         - -1.5461586102014062e-02
         - -1.5576686534686595e-02
         - -4.7053787448692888e-02
         - -2.4197133320137714e-02
         - 3.4292457214600766e-02
         - 4.7352354801218279e-02
         - 7.3268154762404794e-02
         - -7.1557420544655524e-03
         - 1.0748825765291672e-02
         - 6.2671501948302604e-03
         - -7.1207938792664655e-04
         - 1.9847601012332104e-02
         - -5.6327650347455425e-02
         - 8.8452058521839953e-03
         - -2.4700751056568909e-02
         - -1.5018587356976728e-02
         - -2.5385639544532348e-02
         - -2.7138761084571462e-02
         - -3.9263189469275353e-03
         - 1.4868731011045839e-02
         - 8.8529229156192990e-02
         - 8.6755451363144716e-03
         - 4.3523959441863814e-04
         - -3.4261898504815105e-02
         - -1.2327678166645704e-02
         - 1.1638478077280046e-02
         - 1.8351077395060460e-02
         - -1.7638432132572997e-02
         - -5.5370497161335392e-03
         - -2.0937132297657982e-02
         - -4.9996769073499397e-03
         - 1.5869703307575284e-03
         - 2.6069675473210843e-02
         - 5.3073511679232943e-03
         - 1.5610864207296611e-02
         - 7.7196368537017059e-03
         - 9.9510516125279683e-03
         - -1.0455321518137365e-02
         - 3.2980256532904775e-02
         - 5.2789329146348003e-03
         - -3.0723802789908744e-02
         - -1.7801379679326768e-02
         - 3.9615179738592812e-02
         - 2.8739375154303991e-02
         - 1.1898462478887305e-02
         - -7.8399767696230357e-03
         - 1.3280556312336336e-02
         - 1.9900907144221793e-02
         - 2.8213843454720271e-02
         - 3.1089685529105546e-02
         - -9.1382646070237107e-04
         - -2.5173458015929708e-02
         - 1.4988554202447038e-02
         - 4.7448896888457839e-02
         - 2.5155281536511855e-03
         - 2.0251695881225308e-02
         - -1.3093619663711035e-02
         - -1.6337702032540986e-02
         - 3.2138885057198120e-02
         - 4.6422017145282329e-04
         - -1.3884090404352045e-02
         - -1.5936708084374338e-02
         - -6.1097552496132662e-02
         - -2.0985832235906367e-02
         - 2.5769402912760392e-02
         - 4.8805661935085495e-02
         - 8.2806436794665400e-02
         - -2.1476853471370749e-02
         - 9.1522693837825068e-03
         - 2.0939993385228162e-02
         - 6.6882965590695810e-04
         - 3.8340813720916446e-02
         - -5.8260654133366188e-02
         - 1.7390460469981984e-02
         - -1.3733253773786919e-02
         - -7.8413249946132548e-03
         - -3.6020101212122027e-02
         - -3.1886464902954478e-02
         - 2.3679893658007569e-03
         - 2.2007165226303773e-02
         - 9.6354032271684542e-02
         - -3.2365415273356805e-05
         - -2.5245697646408597e-03
         - -4.9816189477882536e-02
         - -2.9325975940229714e-02
         - 1.5906675475059532e-02
         - 2.3441626102960300e-02
         - -1.5851603429589960e-02
         - -1.0851515560868196e-02
         - -1.0155257990208704e-02
         - -1.8992193121623348e-02
         - 1.4263915115405359e-02
         - 1.3052226711736852e-02
         - -8.3911765242384948e-03
         - 2.6526625118975015e-02
         - 1.1636670903700125e-02
         - 2.7133416855641170e-02
         - -1.2962261180669182e-02
         - 2.5178286478837918e-02
         - -4.6084666472685056e-03
         - -3.4712061175171192e-02
         - 5.2349582853041480e-03
         - 3.2880792323699365e-02
         - 2.5152233651312840e-02
         - -8.9687831608299320e-03
         - 8.7110845399376868e-04
         - 8.3668430805202906e-03
         - 1.3954183482416394e-02
         - 7.8087000396767576e-03
         - 2.5687808316693365e-02
         - -1.0887580532353993e-02
         - -1.6286427171909881e-02
         - 1.9244873278016689e-02
         - 4.1503366827601605e-02
         - 1.4202386929571612e-02
         - 9.2005866494520618e-03
         - -1.8834356750978890e-02
         - -6.0426888973905563e-05
         - 3.3835554842682830e-02
         - 9.1876637173568618e-03
         - -1.1283999860257324e-03
         - -2.2481334312532093e-02
         - -5.2745352687096667e-02
         - -2.4232090646395085e-02
         - 3.8937491295666961e-02
         - 4.5844549482247005e-02
         - 7.0380453643761234e-02
         - -2.1270984434980524e-02
         - 1.6519844124642177e-02
         - 7.3174900929470774e-03
         - -2.0497537688882838e-03
         - 1.4069378033133781e-02
         - -5.9105589967089464e-02
         - 2.1570482264789741e-02
         - -1.8307990717031229e-02
         - -3.8067814275713498e-03
         - -4.2158395733563725e-02
         - -2.5295884815995130e-02
         - 6.3003610758762853e-03
         - 8.8559141992836776e-03
         - 8.4190842355942236e-02
         - 1.1839494129735074e-02
         - 9.0580092283271598e-03
         - -4.1727000939296516e-02
         - -2.1495908487107820e-02
         - 1.3288141198259490e-02
         - 1.3591457849905692e-02
         - -1.3119274188833265e-02
         - -8.4982624955106285e-03
         - -1.4234244570681214e-02
         - -8.6031061118479780e-03
         - 5.2379802816532525e-03
         - 9.8929557451723077e-03
         - 1.3697292375822252e-03
         - 9.1376742088248083e-03
         - 5.3362994136912419e-03
         - 2.7032346956186747e-02
         - 6.7743064004645902e-03
         - 1.8789806893573218e-02
         - 2.1772278968323938e-03
         - -3.1198564629067047e-02
         - -1.9997487691646401e-02
         - 1.9623414685094938e-02
         - 2.0091166710619262e-02
         - 6.3530834552626382e-03
         - -3.6975398460384920e-03
         - 9.7763302525576933e-03
         - 2.6340940027833045e-02
         - 1.6491264396902013e-02
         - 2.1362177827651586e-02
         - -1.9877380014109839e-03
         - -2.7176606492717362e-02
         - 2.9854654146885869e-02
         - 3.2822612397887953e-02
         - -2.2123774272742678e-03
         - 1.2886681148681949e-02
         - -2.0672936876727610e-02
         - -9.5078342893854511e-03
         - 2.6057827597655427e-02
         - 1.1933907121089871e-02
         - -1.6981290516906569e-02
         - -1.8325221977382591e-02
         - -4.9394425757616101e-02
         - -9.4481438896910231e-03
         - 2.2609135413298807e-02
         - 5.2552897364444219e-02
         - 7.2945661573087101e-02
         - -1.6786620333581522e-02
         - 1.6671005147490744e-02
         - 1.9568890913037609e-02
         - 3.6377905036568438e-03
         - 2.6377895675639990e-02
         - -5.5356889015853172e-02
         - 2.0779518125296232e-02
         - -3.2368658819263880e-02
         - -1.2496049326257476e-02
         - -4.2919653188479505e-02
         - -2.6799959896087765e-02
         - -1.9043028805379287e-03
         - 1.8877912060545565e-02
         - 8.8439568671409605e-02
         - 1.1577529037674398e-02
         - 5.9694029040044186e-03
         - -4.1082314319964029e-02
         - -1.0446760085540983e-02
         - 1.6450600891502267e-02
         - 1.6654145922632868e-02
         - -1.7822269459316375e-02
         - -1.9778308191276510e-02
         - -1.1494814750800560e-02
         - -3.6384389885460089e-03
         - -9.5402745732967691e-03
         - 2.6560649604201580e-02
         - 1.2153705595474094e-02
         - 8.3150010097615516e-03
         - 7.6961481582274571e-03
         - 1.3857295452947255e-02
         - -7.9899106164633658e-03
         - 2.5702289565824158e-02
         - 1.7544285184371216e-02
         - -3.6017725586499127e-02
         - -1.7222644250581169e-02
         - 3.0204259972363916e-02
         - 1.8245216054454370e-02
         - 8.5480887319870653e-03
         - -7.5129799463369874e-03
         - 7.2824759343065220e-03
         - 1.0397570915835911e-02
         - 2.4307107266135206e-02
         - 2.7858371147116659e-02
         - -1.3358568102538205e-02
         - -3.2242069041153315e-02
         - 3.0388321384481838e-02
         - 4.0431882746830766e-02
         - 1.9952872326751692e-02
         - 2.1847531300859108e-02
         - -4.3784485862821436e-03
         - -1.9344315020179817e-02
         - 2.0609868434941673e-02
         - -3.4731352944715561e-03
         - -7.6259130641772336e-03
         - -2.3249746212484802e-02
         - -4.9381866926103170e-02
         - -2.7434083121532227e-02
         - 3.5544392062532473e-02
         - 5.1762140336082570e-02
         - 4.7700442702845444e-02
         - -2.0955621694630024e-02
         - 2.5767231303588694e-02
         - 1.4930222489120784e-02
         - -1.5438097881387938e-02
         - 9.2308744724490400e-03
         - -4.8979347208898655e-02
         - 2.7854943610698006e-02
         - -1.8633608283854960e-02
         - -2.2882867604514776e-02
         - -2.6304257165493512e-02
         - -4.3601181136808352e-02
         - 9.7377681465233117e-03
         - 1.5044282873831482e-02
         - 6.7829769809522975e-02
         - 7.3056508539438127e-03
         - 9.2527043242328754e-03
         - -4.9330335998178654e-02
         - -2.0072849986142373e-02
         - 1.3393093745873655e-02
         - 2.6776330363779327e-02
         - -1.8768469393843447e-02
         - -1.8215425576262542e-02
         - -3.4910957247232227e-02
         - -1.7186053864351323e-02
         - 2.2439040957925173e-03
         - 1.7103878321670964e-02
         - 1.6698225105889621e-02
         - 2.1001240720175725e-02
         - -3.4756597338700089e-03
         - 2.7426073969585924e-02
         - -1.1892146945321444e-02
         - 3.1010297559828225e-02
         - 1.4152058724395780e-02
         - -3.8353736242956384e-02
         - -1.2494718850952361e-02
         - 2.9436149760862500e-02
         - 2.1920552196993251e-02
         - 3.3631672357769928e-03
         - -2.6024643147666369e-02
         - 1.2593041764130038e-02
         - 3.0059045790716700e-02
         - 3.3533175707409733e-02
         - 3.6970730927158142e-02
         - 2.0023655621964859e-03
         - -3.6111267356763344e-02
         - 3.6452886178747312e-02
         - 2.4113498382796656e-02
         - 1.9109163482647268e-02
         - 2.5115274504088972e-02
         - -5.7446151523374272e-03
         - -8.7850399331046176e-03
         - 2.6660259312293877e-02
         - -3.9879123987658473e-03
         - -1.3294543444043802e-02
         - -2.0266739116010003e-02
         - -4.3754689214136624e-02
         - -3.8608547587211516e-02
         - 4.4546845028093904e-02
         - 4.2573008196595916e-02
         - 5.2585838229449879e-02
         - -1.0021850434812195e-02
         - 2.2390654305282941e-02
         - 1.8649884913228339e-02
         - -1.3136012643093208e-02
         - 7.3360600768236882e-03
         - -5.4275648058845015e-02
         - 2.4519234644983644e-02
         - -3.6539974868800777e-02
         - -1.9098383310274927e-02
         - -2.1801654726075450e-02
         - -4.2710264582115645e-02
         - -6.4490192781891517e-03
         - 2.4157847139570338e-02
         - 2.1755376655622109e-02
         - 1.7167127587308605e-02
         - -8.3455861431764835e-05
         - -4.2181613179680215e-02
         - -3.2256948056457756e-02
         - 2.5822979399268683e-02
         - 2.8230788688758762e-02
         - -4.1102728018316742e-02
         - -3.1525351132217383e-02
         - -4.0283339236602739e-02
         - -2.5304185767184097e-02
         - -1.4998725927074021e-02
         - 9.3381107767724408e-04
         - 1.9275333148974807e-02
         - 1.6814587708532908e-02
         - 1.0358553193126762e-02
         - 2.5641019216688710e-02
         - -1.2225711250483403e-02
         - 2.3523980909274298e-02
         - 1.2090831941733176e-02
         - -3.2602866412649492e-02
         - -5.9419024731554764e-03
         - 3.7939078509222811e-02
         - 3.2021833474877998e-02
         - -1.9788264170568778e-02
         - -1.9013331232886902e-02
         - 1.3173060727131836e-02
         - 1.2191046484174345e-02
         - 1.6690931595205096e-02
         - 4.3861757803033259e-02
         - 2.1372200994883269e-03
         - -3.7249523224397674e-02
         - 1.7330179101268391e-02
         - 5.0811410289104186e-02
         - 8.9104467184261456e-03
         - 2.7839546156766936e-02
         - -2.2823912883809794e-02
         - -2.1553418738653091e-02
         - 4.4497487219380162e-02
         - 6.5307279110093132e-03
         - -1.4313612347320382e-02
         - -9.6313027475721930e-03
         - -5.7982253876920055e-02
         - -2.2650271776900082e-02
         - 4.3492581161555938e-02
         - 5.0878220984989134e-02
         - 7.5609972565684053e-02
         - -1.8510443468569126e-02
         - 1.4635395032390041e-02
         - 2.3216746435153562e-02
         - -1.1412796563546613e-02
         - 2.7370523542053042e-02
         - -6.8921317167323567e-02
         - 8.3446009349894979e-03
         - -2.8936932305711146e-02
         - -8.3669572746521322e-03
         - -4.0791756399562264e-02
         - -4.2085488039592889e-02
         - 1.5423269050521812e-02
         - 2.6291782958361383e-02
         - 9.8449074640757042e-02
         - 1.6127682947600201e-02
         - 1.4125909751184064e-03
         - -5.8602935909959325e-02
         - -2.2010055208771914e-02
         - 1.7668322223781795e-02
         - 1.3517959087217679e-02
         - -2.3504925790838176e-02
         - -5.5907965488769858e-03
         - -1.1877495707330729e-02
         - -4.9654205036696857e-03
         - 8.9586284765440260e-04
         - 1.5068223524780598e-02
         - -7.2628597097655345e-03
         - 1.7354366607179345e-02
         - -4.0363533321281795e-03
         - 8.6720757773030305e-03
         - -4.3946611440186141e-03
         - 3.8533734753380303e-02
         - -1.2067641706184041e-02
         - -3.7351123609246237e-02
         - -1.5861406164716465e-03
         - 3.8389660640723321e-02
         - 3.6441380708557465e-02
         - -1.6041841860322693e-02
         - -1.7727461274875417e-02
         - 8.7083731342280004e-03
         - 3.5561320261431252e-02
         - 2.8310240855279889e-02
         - 3.5653766805896929e-02
         - -2.3046209350142837e-03
         - -2.9036050513479218e-02
         - 4.1520154936458102e-02
         - 2.9197910334932384e-02
         - 1.9579725126592007e-02
         - 1.1275776981010096e-02
         - -7.5667696016584480e-03
         - -2.3958899488032238e-02
         - 3.7115745944477113e-02
         - -1.0544725714766135e-02
         - -2.4099858862276398e-02
         - -1.9888824956725611e-02
         - -5.3975197675425281e-02
         - -2.2601557503771005e-02
         - 4.2813723896270563e-02
         - 5.0487064655412299e-02
         - 6.3094336622149430e-02
         - -1.8934228908380705e-02
         - 3.7605610856921205e-02
         - 3.0757488381734987e-02
         - -3.1581544588795926e-03
         - 1.9761793518990503e-02
         - -4.9003070545857605e-02
         - 2.6770825775275814e-02
         - -3.7181600485828636e-02
         - -2.5997120680182947e-02
         - -3.5177453113677155e-02
         - -3.0920258163777869e-02
         - 1.8043487002240368e-03
         - 1.4912371101414194e-02
         - 5.0503363505793868e-02
         - 8.5488025926785099e-03
         - 2.7816317557343498e-03
         - -4.4560564305484093e-02
         - -2.1859700566245498e-02
         - 1.5708259390194483e-02
         - 2.6038939647226176e-02
         - -3.7166366653813836e-02
         - -1.4027066058873756e-02
         - -2.2673467720769735e-02
         - -2.9368506743575763e-02
         - 1.8551914583971772e-03
         - 1.5033805032060327e-02
         - 1.2724956056785050e-02
         - 1.3791697205839755e-02
         - 8.9016568844874060e-03
         - 1.6735986628389238e-02
         - 1.0756072820763657e-02
         - 1.9615347830047768e-02
         - 1.7323077642589568e-02
         - -4.2954958974171877e-02
         - -1.1685113061335279e-02
         - 2.4107583221195054e-02
         - 2.5701471234127859e-02
         - -2.6485327038689678e-03
         - -2.2225703135063796e-02
         - 1.1217295630972301e-02
         - 3.3806473649399107e-02
         - 3.9079096333349904e-02
         - 3.5952463172325574e-02
         - -4.7980591108692664e-03
         - -3.2626808554660693e-02
         - 4.4767384725431639e-02
         - 2.4099495354790453e-02
         - 1.6589715623940834e-02
         - 1.4957515915072080e-02
         - -1.0384063004710203e-02
         - -9.6161295986029790e-03
         - 3.9561366867306068e-02
         - -1.6949082080084360e-02
         - -1.8912477656299904e-02
         - -1.5933103390796257e-02
         - -4.5761713298624968e-02
         - -3.6734440884782234e-02
         - 4.0623271176190814e-02
         - 3.4951666864564676e-02
         - 4.4973388981753848e-02
         - -2.6055447482419116e-03
         - 3.9761603769403554e-02
         - 3.4187708531627219e-02
         - -1.2310991462172965e-02
         - -1.1378174155248659e-02
         - -5.2744478016535104e-02
         - 2.6583242495370290e-02
         - -3.8038810234957171e-02
         - -1.2287928725887402e-02
         - -3.7007351654345884e-02
         - -3.8359231183269719e-02
         - 1.3428766341843881e-02
         - 2.6280782425272615e-02
         - 1.8544603894351565e-02
         - 1.4346484032958625e-02
         - -5.8989254235208618e-03
         - -5.2998702620862294e-02
         - -4.0397426400054406e-02
         - 3.0768553266486590e-02
         - 3.0834297438523471e-02
         - -4.0479770675139776e-02
         - -2.3682620899276231e-02
         - -5.0091999942557454e-02
         - -1.5096244215905745e-02
         - -5.7712031569993483e-03
         - 1.1981792768855332e-02
         - 1.8035263998686914e-02
         - 1.6084242493443889e-02
         - 4.5653188361619180e-03
         - 3.5112379832950666e-02
         - -2.1726267549371922e-03
         - 1.3020628705289763e-02
         - 2.5904185196821961e-02
         - -3.9839407904082788e-02
         - -1.8150045007570524e-02
         - 2.6640187231111816e-02
         - 2.4315388002233807e-02
         - -2.5887909670699500e-02
         - -2.0727306411130245e-02
         - -1.0034904929567320e-03
         - 3.3930594908646444e-02
         - 4.2976588338689753e-02
         - 5.1876351161606778e-02
         - 9.2740869987114043e-03
         - -5.5485141010018141e-02
         - 3.6475538860300902e-02
         - 2.4202411300747136e-02
         - 1.7039925754042791e-02
         - 4.1912689838621148e-02
         - 1.6789264914035717e-02
         - -2.8665539789418194e-02
         - 4.9435462024318547e-02
         - -2.0181974288838778e-02
         - -4.0443544647010291e-02
         - -3.0047314789598011e-02
         - -7.6448696029112334e-02
         - -4.8270934880658541e-02
         - 5.9250368575160209e-02
         - 6.1886310450523098e-02
         - 9.7390506602890614e-02
         - -2.4730948760131509e-02
         - 3.2507024942927565e-02
         - 4.7402335582937480e-02
         - -9.5363485908121302e-03
         - -8.9848904561665478e-03
         - -7.0927172006460454e-02
         - 3.3202736275075508e-02
         - -4.2972544573500811e-02
         - -3.0589015203560596e-02
         - -1.5444078512093425e-02
         - -5.7467214313051046e-02
         - 1.8331914228709445e-02
         - 3.2412859420135144e-02
         - -5.8607234011810311e-02
         - 1.2846567416291402e-02
         - -1.1663664052701207e-02
         - -5.5478893495107831e-02
         - -5.2149241965751464e-02
         - 1.4962865149896342e-02
         - 2.4710271276572777e-02
         - -4.9086145106513934e-02
         - -2.6491201961781969e-02
         - -5.2901220580765212e-02
         - -4.3016118407741305e-02
         - -3.1716345002780130e-02
         - 7.0271885635310417e-04
         - 1.2604554023432142e-02
         - 4.4410596171081403e-02
         - 1.6948952466181017e-02
         - 2.9458873650173655e-02
         - -2.2470153145341932e-03
         - 1.4939090252072702e-02
         - 3.3100506996662386e-02
         - -3.7125524218411317e-02
         - -7.8961170530964259e-03
         - 5.4236431002095041e-02
         - 4.2110433028189911e-02
         - -3.0333498412504656e-02
         - -7.9016427057955075e-03
         - 9.9336339694019327e-03
         - 1.8579328781854226e-02
         - 4.6953090410236716e-02
         - 3.9013486160580618e-02
         - 1.4036166135955257e-02
         - -3.2564494708093965e-02
         - 2.6273715076140371e-02
         - 4.8055191682467330e-02
         - 1.3381211297770264e-02
         - 2.9320796683081671e-02
         - -1.0254745492605586e-02
         - -3.0588876967921685e-02
         - 4.1473873434730961e-02
         - -1.3328268099964638e-02
         - -1.5179698240478934e-02
         - -2.6118159827811200e-02
         - -6.2190897972155927e-02
         - -3.9427208157475462e-02
         - 6.6574722295632272e-02
         - 6.1096707232413346e-02
         - 7.2697894392894855e-02
         - -1.9486287621120153e-02
         - 4.3346191076271010e-02
         - 3.1770103799385489e-02
         - -1.3871647672943736e-03
         - 2.6654370176676389e-02
         - -4.9448414653947316e-02
         - 1.2028564037803920e-02
         - -3.5639828981022734e-02
         - -3.4360580172115650e-02
         - -2.7910206811153578e-02
         - -5.5420194458236025e-02
         - 1.3838526958615866e-02
         - 4.1208912043592602e-02
         - 5.9101673468122992e-02
         - 1.1720001430264431e-02
         - -2.2222611691764677e-02
         - -5.8455380136827988e-02
         - -3.9483676796867352e-02
         - 1.0692814917600541e-02
         - 2.8816124256863397e-02
         - -4.0359597403645059e-02
         - -1.7200574141810730e-02
         - -3.2233673985321440e-02
         - -2.3938092789474043e-02
         - -1.1031747697494328e-02
         - 1.7847371020019143e-02
         - -9.7088730315409606e-03
         - 1.9415436591368174e-02
         - 1.1170665885823890e-02
         - 4.0210887458261818e-02
         - -7.7621866776050197e-03
         - 1.4120740613511127e-02
         - 2.4526189252264199e-03
         - -3.1239570470419357e-02
         - -7.8562013777021700e-03
         - 5.0000966251060257e-02
         - 4.6143751408411399e-02
         - -3.9025358706284506e-02
         - -1.2793560169757544e-02
         - 1.0104785720358162e-02
         - 2.0224401195486488e-02
         - 4.1801926972290383e-02
         - 4.8798188728024647e-02
         - 2.5603249086611195e-02
         - -3.7241893153939727e-02
         - 1.1740427661151652e-02
         - 4.3091357876906260e-02
         - 7.1980988747754021e-04
         - 3.4162931005501516e-02
         - -2.3399597711039333e-02
         - -2.7155812174799950e-02
         - 3.9630245995357388e-02
         - -5.1097910990720741e-03
         - -1.5459016919137498e-02
         - -1.4719434973285860e-02
         - -5.9292042968806150e-02
         - -3.1787184628982057e-02
         - 5.6580241562801989e-02
         - 6.9944622957290120e-02
         - 8.1903397441875345e-02
         - -3.2589564520707465e-02
         - 2.6218767932526765e-02
         - 2.5678481275153514e-02
         - -6.0717785784027943e-03
         - 4.1962171356626013e-02
         - -7.1883442292432445e-02
         - 7.9879633095873842e-03
         - -2.5602217274330583e-02
         - -1.5174438154040522e-02
         - -4.7787668483339200e-02
         - -4.9304266261084979e-02
         - 3.7782348262652872e-02
         - 3.7609892939482886e-02
         - 7.3817168762147306e-02
         - 2.6100097279799967e-02
         - -1.8646263367334080e-02
         - -6.1809046869031679e-02
         - -2.8650301815001146e-02
         - 1.6555042159647041e-02
         - 3.4197771296015950e-02
         - -2.8875317089288002e-02
         - -2.7203557130072983e-02
         - -2.6719214231987917e-02
         - -2.7239037001207288e-02
         - 1.3694670156128179e-02
         - 2.7504348079002826e-02
         - -1.3627118799397243e-03
         - 2.7998619877198667e-02
         - 1.8610042941223176e-02
         - 2.9451703472761794e-02
         - 1.0417102993954191e-02
         - 2.3774923417323984e-02
         - -1.7990577786113917e-03
         - -4.2775012707000508e-02
         - -4.4403489895811473e-03
         - 4.7906540448453189e-02
         - 3.9210737289548138e-02
         - -3.2743374286175658e-02
         - -5.8907130113793555e-03
         - 1.2045705739306701e-02
         - 3.9279494561326962e-02
         - 3.1659144884161064e-02
         - 4.4117185633527900e-02
         - 3.0289137705908589e-02
         - -3.1944490168332576e-02
         - 2.5817587052446488e-02
         - 5.1204874489628252e-02
         - -1.8526474085113790e-03
         - 3.8660721034538083e-02
         - -2.6804019416087409e-02
         - -2.2980451225381948e-02
         - 4.3442037351514598e-02
         - -1.6058629153939559e-03
         - -1.1690070021307905e-02
         - -1.5872365473969568e-02
         - -6.1917194445754380e-02
         - -2.5875978451210303e-02
         - 4.4941868667768212e-02
         - 7.0087352297815611e-02
         - 7.9806236486850868e-02
         - -2.9413763036123936e-02
         - 2.7472300086263130e-02
         - 2.6804282161901213e-02
         - -1.3213052173701953e-02
         - 4.7023036429423015e-02
         - -5.9199763961057590e-02
         - 1.8493898529035668e-02
         - -4.0585742080121674e-02
         - -1.7471067856443773e-02
         - -3.9416740127519848e-02
         - -3.1825826863183429e-02
         - 3.3224920690282413e-02
         - 4.4532674552351381e-02
         - 7.1115308847644693e-02
         - 1.1932325972495465e-02
         - -1.2446401793950885e-02
         - -5.9716359813158440e-02
         - -3.8335323049625877e-02
         - 1.0550809979749817e-02
         - 2.3724939037063637e-02
         - -3.4394452411221070e-02
         - -2.3085064947471673e-02
         - -2.5433428577720515e-02
         - -2.5209781903190953e-02
         - 7.9002805817194235e-03
         - 1.6373240705685712e-02
         - -1.0337131143727750e-03
         - 2.9484643723649326e-02
         - 1.3011357306871356e-02
         - 2.2257279051886736e-02
         - -2.7527177545065770e-03
         - 2.1211062986152347e-02
         - 4.6632784221194217e-03
         - -4.4245661569246454e-02
         - -3.0432866711440137e-03
         - 3.4450452457846614e-02
         - 4.2675879031140555e-02
         - -2.6195793009342706e-02
         - -8.3642290595047672e-04
         - -4.0257371828534873e-03
         - 3.8157472476543670e-02
         - 4.3517459967177159e-02
         - 6.0195133466654283e-02
         - 1.0050715299350565e-02
         - -5.0613241220338154e-02
         - 4.8851550801493102e-02
         - 2.4301084595986230e-02
         - 9.1645613307847120e-03
         - 3.0652506642942230e-02
         - -3.6720216258670957e-03
         - -4.0416597731877633e-02
         - 3.5378591484605162e-02
         - -1.2693294446254444e-02
         - -2.4331632163893724e-02
         - -3.1922100841462742e-02
         - -6.8326101318508553e-02
         - -4.0501307594374217e-02
         - 6.4544330317799395e-02
         - 6.1270294351955003e-02
         - 5.8999469821234718e-02
         - -2.2557393145876792e-02
         - 4.7567707178567967e-02
         - 2.4928154142410480e-02
         - -9.4568959826901305e-03
         - 5.5624477496255377e-03
         - -6.3219271773207825e-02
         - 1.2117346993729626e-02
         - -4.0546145685100031e-02
         - -3.1793127970246471e-02
         - -2.7297397175862183e-02
         - -4.4730092406276782e-02
         - 2.2244247324849011e-02
         - 4.3710309420273881e-02
         - 1.5866571198876116e-02
         - 1.8212881854196571e-02
         - -1.1356413537922229e-02
         - -5.5106476664206504e-02
         - -4.5834742005042332e-02
         - 2.4923432966060453e-02
         - 2.0099691927794098e-02
         - -4.8703923869203358e-02
         - -2.7490886006846106e-02
         - -5.0200789971826518e-02
         - -4.1729743489906851e-02
         - -1.6640679063653352e-02
         - 3.8073780492129008e-03
         - 6.1141944106155328e-03
         - 4.2090686243110825e-02
         - 3.1121877727343879e-02
         - 4.3439714467818608e-02
         - 1.0106625336586871e-02
         - 1.0983727905183378e-02
         - 2.4914398508983873e-02
         - -4.2477960429425608e-02
         - 7.5411187439382403e-03
         - 4.5351433417825694e-02
         - 3.1473897394477972e-02
         - -4.2793214785339505e-02
         - -8.1083464742637400e-03
         - -1.4319308598889633e-02
         - 2.1400867095872085e-02
         - 2.7136351808830998e-02
         - 3.1394793492017903e-02
         - -4.4757255151077540e-03
         - -4.0598412996257882e-02
         - 3.8245668454622357e-02
         - 1.4262734084642884e-02
         - 1.5579518299050410e-02
         - 2.0116695572065905e-02
         - 1.1918639682414288e-02
         - -2.3690819913964319e-02
         - 2.4586126824578149e-02
         - -2.0013310689855766e-02
         - -9.9959858667734488e-03
         - -1.5024647448946323e-02
         - -4.1375849864139634e-02
         - -3.9425857206695711e-02
         - 4.0678313484528543e-02
         - 4.6685057060790611e-02
         - 4.9166138193434142e-02
         - -1.3372269100793767e-02
         - 2.4678743969426216e-02
         - 1.7866041429818118e-02
         - -9.3243519852520464e-04
         - -2.9068658834721234e-02
         - -5.0816733994962192e-02
         - 2.1771925255390911e-02
         - -3.7133991533546205e-02
         - -2.3768948605199632e-02
         - -2.2071549647303252e-02
         - -2.8131654157759450e-02
         - -1.0647635798611027e-03
         - 1.1432122223663336e-02
         - -8.1745409566670341e-02
         - 7.2984811075991335e-03
         - -6.9844632292798275e-03
         - -4.8207546591955155e-02
         - -3.4883198398100772e-02
         - 1.8079919364646407e-02
         - 2.6381580284228909e-02
         - -4.2450887847457354e-02
         - -1.9039854501659084e-02
         - -3.8685028415125805e-02
         - -1.7828053768527263e-02
         - -2.8403515885642258e-02
         - 5.7271505650449851e-03
         - 1.5162680710163383e-02
         - 2.0976182931971326e-02
         - 2.0631761980982122e-03
         - 2.3143858380535485e-02
         - -8.2791983535092494e-03
         - 8.8411324034171537e-03
         - 3.1469657501326950e-02
         - -2.3244183414285514e-02
         - -1.2254673905682434e-02
         - 3.1425375435607576e-02
         - 1.3617049353224150e-02
         - -7.3675348785331544e-03
         - -1.6088363268257130e-02
         - -5.2687603421584968e-03
         - 3.7595974824560584e-02
         - 3.4539081209052032e-02
         - 3.8055877438755978e-02
         - 9.1278533472693140e-03
         - -3.6632558035759405e-02
         - 3.2348420158150343e-02
         - 2.6250068121513207e-02
         - 2.0531420799408930e-02
         - 2.9116416940349887e-02
         - 8.9398959342301826e-03
         - -3.4850567449936067e-02
         - 4.1965137767265237e-02
         - -2.2222574933083591e-02
         - -3.2049192528325443e-02
         - -1.1710550940314516e-02
         - -6.2580671149210482e-02
         - -4.3319784744345162e-02
         - 6.3927898147528042e-02
         - 5.0834207244287215e-02
         - 6.1004707701824715e-02
         - -1.2087426050274694e-02
         - 4.4504001837435435e-02
         - 2.3954886634396374e-02
         - 2.3294658324401079e-03
         - 8.7983902649833353e-03
         - -6.0711084086998199e-02
         - 2.9541660448395513e-02
         - -3.8632191945739282e-02
         - -2.2154286124791121e-02
         - -3.9443167903300921e-02
         - -4.6988153989528811e-02
         - 1.5497412729505215e-02
         - 4.0744042549140706e-02
         - 1.6917549562119768e-02
         - 2.4199395942684568e-02
         - -1.7514564826604798e-02
         - -5.9685179011560403e-02
         - -4.6460987526729433e-02
         - 2.1750328067650353e-02
         - 3.7979829787739082e-02
         - -4.0826555375184086e-02
         - -2.1104275862410028e-02
         - -5.0618170584513636e-02
         - -4.2293278327695930e-02
         - -8.3712648634693947e-03
         - 1.1901325904670837e-02
         - 1.2841638034429760e-02
         - 2.3724373176773055e-02
         - 1.7821026229457766e-02
         - 4.1197478543345510e-02
         - -1.8209458572388934e-03
         - 1.0525268612947277e-02
         - 2.6916512183179333e-02
         - -4.3736013067488762e-02
         - -1.1558838778042105e-03
         - 3.7205266792621282e-02
         - 4.3543070571999895e-02
         - -1.7239081873524537e-02
         - -1.6018099238921810e-02
         - -1.8796236284838667e-02
         - 3.7571886552547236e-02
         - 4.5191008531445226e-02
         - 5.1741580599258721e-02
         - 2.9963633336646148e-02
         - -5.1042961567743808e-02
         - 4.1737220889754623e-02
         - 2.5809971937623629e-02
         - 1.6817221779341213e-02
         - 4.6849211437109517e-02
         - 1.2105988409672525e-02
         - -4.7527213359162830e-02
         - 5.7982778484185024e-02
         - -2.1162014033281579e-02
         - -3.3141333003416339e-02
         - -2.8165170852108182e-02
         - -7.4699120872344690e-02
         - -4.9019693559011396e-02
         - 6.3160276608669824e-02
         - 7.1695699043539549e-02
         - 9.1898177284984645e-02
         - -1.5529053315861784e-02
         - 3.8490835449801981e-02
         - 3.4095019778149244e-02
         - 5.8753248742556812e-03
         - -1.1413549584792976e-02
         - -5.7417870128239769e-02
         - 2.1433428500207300e-02
         - -5.2103351667785569e-02
         - -3.3064570385372943e-02
         - -1.4055357883488353e-02
         - -4.2183422128517313e-02
         - 3.8522426101758600e-02
         - 4.5677200414404803e-02
         - -1.3240806333046503e-02
         - 1.4428154188496479e-02
         - -2.7974325620486965e-02
         - -7.2151982526928352e-02
         - -5.2053078077273510e-02
         - 9.7306787530696236e-03
         - 4.2286693492373691e-02
         - -5.2694565880758729e-02
         - -3.7042357459378242e-02
         - -5.3948886633510086e-02
         - -2.6422140701926517e-02
         - -2.5621212953669321e-02
         - 2.2513126290253253e-04
         - -1.3767787020293560e-02
         - 3.5376885189741684e-02
         - 4.6352917302150506e-02
         - 3.7599322286550579e-02
         - 9.1898154559438040e-03
         - 9.3981839583968940e-03
         - 2.1792025370075633e-02
         - -4.7368076601496396e-02
         - 2.6232937568927840e-02
         - 4.3055237974626119e-02
         - 4.0136753216508586e-02
         - -4.2263778493061045e-02
         - -4.8544813116844047e-03
         - 9.6958202693814329e-03
         - 3.1736669399367728e-02
         - 3.1828431303691694e-02
         - 3.4459849715381179e-02
         - 2.0175632444963372e-03
         - -2.9327431995597234e-02
         - 3.3615422267917347e-02
         - 3.5017821771489814e-02
         - -7.6343942281204751e-04
         - 3.1210729724118567e-02
         - -2.3186658890699628e-03
         - -2.4620909354930498e-02
         - 3.0404554621762510e-02
         - -1.1988218937752990e-02
         - -2.1468671924503673e-02
         - -2.3809434409913916e-02
         - -5.6628188404002140e-02
         - -2.0346597479704524e-02
         - 4.1220683966374912e-02
         - 3.7582954273412260e-02
         - 6.6767389854415160e-02
         - -1.7767058683516728e-02
         - 2.2881117183983245e-02
         - 1.0275888295810168e-02
         - -7.2857757483148428e-03
         - 1.4059200917075427e-02
         - -4.2505266632009917e-02
         - 1.4986050906170039e-02
         - -3.7155493421558751e-02
         - -1.3939275404795707e-02
         - -3.4481296610008483e-02
         - -3.1849008578012789e-02
         - 1.4805101660960407e-02
         - 1.5139110229949760e-02
         - 6.4056253046715791e-02
         - 8.8291432423316524e-03
         - -1.3678209277623568e-02
         - -5.4089347390890580e-02
         - -2.9491662716245561e-02
         - 1.4729479497997942e-02
         - 2.6798713184574930e-02
         - -3.1953738226566115e-02
         - -1.2217026131477482e-02
         - -2.8905605778113248e-02
         - -2.4255357997201150e-02
         - 9.2193822604771779e-03
         - 1.3574343998808457e-02
         - -3.7674453785395126e-03
         - 2.2723003085171646e-02
         - -3.0147077692908868e-03
         - 1.5831299890354013e-02
         - 4.0893506080171144e-03
         - 3.3354639396894821e-02
         - 1.6563854011695817e-02
         - -3.1005311354190983e-02
         - -2.4388371696924763e-03
         - 2.6140291522927645e-02
         - 4.0449391617970031e-02
         - -4.1339187500113303e-03
         - -3.0730539099103190e-03
         - -2.3709370017493889e-02
         - 3.2573339195275774e-02
         - 4.4773791185930917e-02
         - 4.5470841540584471e-02
         - 1.3932465197612869e-02
         - -3.8642925737462051e-02
         - 4.5837965184317750e-02
         - 1.1748476619467553e-02
         - 4.2856883322781722e-03
         - 2.2767063258969957e-02
         - 2.1984923145468339e-02
         - -3.7586308392945314e-02
         - 2.6170210390041686e-02
         - -3.0028591056747825e-02
         - -2.9948793931351907e-02
         - -1.7246236995648825e-02
         - -6.1995692812228456e-02
         - -4.8280268692345724e-02
         - 6.0556337356197289e-02
         - 5.1620851425451218e-02
         - 7.4451732672560583e-02
         - -2.5302615399091545e-02
         - 3.2024561740601511e-02
         - 3.3564244910231779e-02
         - -1.7504738875771147e-03
         - -1.6351073399525413e-02
         - -4.1756696906879880e-02
         - 4.9052654382606628e-03
         - -3.9137845988903276e-02
         - -2.5308591809230861e-02
         - -1.1925990434240089e-02
         - -3.2726462153618560e-02
         - 3.6137070091843151e-02
         - 4.6479872242474150e-02
         - -4.9048897119052109e-02
         - 2.7512738872342374e-02
         - -1.6923113342922270e-02
         - -5.6477397888299349e-02
         - -4.9342907219674097e-02
         - 2.4674757967233316e-02
         - 2.4893569107649522e-02
         - -4.9168150634979861e-02
         - -3.9992275311135847e-02
         - -4.5913519517909583e-02
         - -2.7691704798054967e-02
         - -1.7697611457214085e-02
         - -1.0208430846516870e-02
         - 2.8830330521974101e-03
         - 3.1260260052998944e-02
         - 3.0548546921438876e-02
         - 2.3971351605001315e-02
         - 2.0083567782422165e-02
         - 1.1109288276725296e-03
         - 2.5773995518311370e-02
         - -2.5273869247713947e-02
         - 1.2679187394984547e-02
         - 4.5752662128797611e-02
         - 2.8071481764975377e-02
         - -4.1361748058829549e-02
         - 4.1709802945386724e-03
         - 1.6310680426003359e-02
         - 1.6120128893096580e-02
         - 3.1915527870084941e-02
         - 3.1669005606191791e-02
         - 9.3025964168681361e-04
         - -1.9889886318132554e-02
         - 3.1536987174421681e-02
         - 3.6403838668521586e-02
         - 3.6226605871781661e-03
         - 1.0103114717231288e-02
         - -1.0821317065675446e-02
         - -4.3256653148740134e-03
         - 2.7925823263120344e-02
         - 4.1759589170620543e-03
         - -1.0253822772778027e-02
         - -2.1147760603055673e-02
         - -3.0026057677734409e-02
         - -1.4070951472020711e-02
         - 3.8853334062479740e-02
         - 3.0032105983227374e-02
         - 3.9147428643957247e-02
         - -1.5793319210806200e-03
         - 3.4412523670237796e-02
         - 2.1456127933894092e-02
         - -2.1312225523696395e-03
         - 9.7203561083395312e-03
         - -4.2952056276559805e-02
         - 1.9758473619141792e-02
         - -1.6152311284653408e-02
         - -4.7931670730627695e-03
         - -3.3533629513089004e-02
         - -3.0422749048569557e-02
         - 5.5869535851783628e-03
         - 2.3112122424932120e-02
         - 1.2668128711282318e-02
         - 2.1702633848582967e-02
         - 3.8480093407417208e-03
         - -3.2679715751815587e-02
         - -2.5729717060059318e-02
         - 1.5911142666483295e-02
         - 1.1620378992128803e-02
         - -3.0916064666331868e-02
         - -1.3572758525961645e-02
         - -2.3308719362837658e-02
         - -1.4584598271611793e-02
         - -4.1771863499396392e-03
         - 9.4830981810432747e-03
         - 1.1750154656629188e-03
         - 1.0842105366817100e-02
         - 8.1808998763307997e-03
         - 3.0783809645927199e-02
         - -7.0084382129577370e-03
         - 1.3250806819959748e-02
         - 1.2911496822118231e-02
         - -2.7615525333020068e-02
         - -1.4078498223522641e-02
         - 3.9521652055132479e-02
         - 1.9192513315118603e-02
         - -3.4922934811515960e-03
         - -2.4417018472967802e-03
         - -3.4702830656633582e-03
         - 3.1035024167900122e-02
         - 2.1666524755164750e-02
         - 4.5542167316724176e-02
         - 1.0816611427324079e-02
         - -3.6545431059429360e-02
         - 3.1831480842187523e-02
         - 2.0182251273578838e-02
         - 1.2645623159417398e-02
         - 3.4096626202620030e-02
         - 5.6798514177306917e-03
         - -2.8515386898467523e-02
         - 3.8860490592263923e-02
         - -1.7449509784704074e-02
         - -1.4393656086121847e-02
         - -2.4699226246276091e-02
         - -4.3159510637820274e-02
         - -3.7432694029810705e-02
         - 4.7633653190972146e-02
         - 4.7814800729158655e-02
         - 3.1998857538682327e-02
         - -9.2692200820333002e-03
         - 4.0674262721886137e-02
         - 2.5677998061672185e-02
         - 3.6416059306878293e-03
         - -9.6065770644358939e-03
         - -4.4995473031132487e-02
         - 2.6916382596887584e-02
         - -4.4849160381569289e-02
         - -2.3326413744705139e-02
         - -1.7684026640905456e-02
         - -4.5471237590628398e-02
         - 2.8701578901724010e-03
         - 2.3760412236929960e-02
         - -4.9390290324055012e-03
         - 1.5701250787706754e-02
         - 6.6069269812297745e-04
         - -5.3744201365865510e-02
         - -3.7415694296441197e-02
         - 2.0788560822591871e-02
         - 3.1984820383021528e-02
         - -2.1764754031866361e-02
         - -2.8554523610992238e-02
         - -3.2316753867366869e-02
         - -3.6243643432974475e-02
         - -1.4424784135633162e-02
         - -9.7386298700930950e-04
         - 7.8972303739717233e-03
         - 2.7105575224054296e-02
         - 9.4293861889996090e-03
         - 2.4291297074934628e-02
         - 9.4862613454533441e-03
         - 2.2910689928629515e-02
         - 1.5016259416843371e-02
         - -2.9872664030708859e-02
         - -1.6992805769994463e-03
         - 3.3951699491992768e-02
         - 3.8146319822330431e-02
         - -2.2845303470963130e-02
         - -8.2091208644318580e-03
         - -2.3480154137175427e-02
         - 2.3495997235925933e-02
         - 2.9946052659760167e-02
         - 4.4147506105013688e-02
         - 1.7155544510013040e-02
         - -3.3130503140228570e-02
         - 3.0041536137953788e-02
         - 3.5796636345016784e-04
         - 1.3199133880404734e-02
         - 3.5628947420634584e-02
         - 1.0055564744415515e-02
         - -3.7381138942956971e-02
         - 3.0941917666823294e-02
         - -1.5506362701665716e-02
         - -3.2063227141141439e-02
         - -7.9593446797174509e-03
         - -4.3490383905300592e-02
         - -4.3891623002341083e-02
         - 4.1956583316244252e-02
         - 5.0656074714752246e-02
         - 4.5842002451211526e-02
         - -1.9229520198650957e-02
         - 2.6518245832471761e-02
         - 3.5048500160520926e-02
         - -7.7629137022395813e-03
         - -1.7937026398466890e-02
         - -3.6695886228300771e-02
         - 9.9579520364298842e-03
         - -2.9551379259258950e-02
         - -3.7165483137567380e-02
         - -1.0961140786699573e-02
         - -4.3455473548414558e-02
         - 2.4502055834211375e-02
         - 4.6342153705330374e-02
         - -5.3761641759971356e-02
         - 1.8707836886313570e-02
         - -2.4619312370650105e-02
         - -4.0033141089279120e-02
         - -3.3399829944459690e-02
         - 1.0793739501492396e-02
         - 2.1940133859128408e-02
         - -3.1267318656341928e-02
         - -3.7164740737830687e-02
         - -4.3642104126805165e-02
         - -3.0917794588360269e-02
         - -2.6739075711436720e-02
         - -2.1560333268534492e-03
         - -9.8943656301906241e-03
         - 2.4396034562888091e-02
         - 3.4408140719488653e-02
         - 2.0420141334111797e-02
         - 2.2087204897772841e-02
         - -5.0032297669188571e-03
         - 2.6968205033280700e-02
         - -2.2923568826856318e-02
         - 2.1742616741638555e-02
         - 2.6847459119061078e-02
         - 3.1340935729506664e-02
         - -3.8468710313185682e-02
         - 4.6639035672407271e-03
         - -2.1845699357762047e-03
         - 2.3708669896248175e-02
         - 2.4349000950674281e-02
         - 4.2349360429660511e-02
         - 5.6877424503913405e-03
         - -3.5331065330326795e-02
         - 2.4217429435571963e-02
         - 1.4735435795090217e-02
         - 1.0093637240929017e-02
         - 1.7990710231603931e-02
         - 1.2746236128986788e-03
         - -6.0763974976060613e-03
         - 2.9997242603048299e-02
         - -1.5368914548078287e-02
         - -2.4132516620878969e-02
         - -2.4207236857332441e-02
         - -3.3209526588182006e-02
         - -2.7861547734577864e-02
         - 4.5651336887542228e-02
         - 2.7042713318028801e-02
         - 3.9725985834708370e-02
         - -1.0207489443109406e-03
         - 2.6667807359234730e-02
         - 1.1770046989201366e-02
         - 7.4652784601036302e-03
         - -3.9474403461103961e-04
         - -3.3896560776115470e-02
         - 2.3241290135095290e-02
         - -2.2042589036276847e-02
         - -1.3875780620864408e-02
         - -3.1292116626405825e-02
         - -3.8616955389233806e-02
         - 8.1812706331808784e-03
         - 2.1260567447880570e-02
         - -2.0288666986277591e-02
         - 2.4963687339533022e-02
         - -1.1684613367268599e-02
         - -4.4433710687137265e-02
         - -1.7248449242976954e-02
         - 1.0782942404243434e-02
         - 2.8015453851282679e-02
         - -2.9244829580014314e-02
         - -1.9303861132111147e-02
         - -3.3203719948441485e-02
         - -9.1459578958334002e-03
         - -1.5792307081087947e-02
         - 5.9298449313050861e-03
         - 8.8607564447006765e-03
         - 2.2438609863911389e-02
         - -6.3493681403269380e-04
         - 2.9546108881571526e-02
         - 3.0051084955967657e-03
         - 2.1901694683794146e-02
         - 1.5586104755783941e-02
         - -3.4248219537973308e-02
         - -6.6206238707959067e-03
         - 2.8395770281354111e-02
         - 3.0862771718295146e-02
         - -6.6881655551141771e-03
         - -5.5651964180595369e-05
         - -1.8624446245795200e-02
         - 2.0692241642837891e-02
         - 5.5970678511300463e-02
         - 4.6060858159458297e-02
         - 4.2041064858322229e-02
         - -3.1860347731454644e-02
         - 3.3637198319351448e-02
         - 1.7802391925424960e-02
         - 2.0795602487761232e-03
         - 3.7692761091570832e-02
         - 2.5781065634542865e-02
         - -3.0287994073410981e-02
         - 5.2306229096496494e-02
         - -2.9017577460476087e-02
         - -4.8607381337280098e-02
         - -1.0888993034598834e-02
         - -6.1446741594319856e-02
         - -5.0903439235364667e-02
         - 5.8791177148125595e-02
         - 7.2094853509897860e-02
         - 9.2688424157438984e-02
         - -1.1935399357102677e-02
         - 3.7852162641321116e-02
         - 4.7611382222802194e-02
         - -1.6214505596193471e-03
         - -6.1448028144935117e-04
         - -6.7938700191500306e-02
         - 1.3972745300323127e-02
         - -4.0895178684733670e-02
         - -4.3428182385521555e-02
         - 1.8104880347874334e-04
         - -4.5794998942771087e-02
         - 4.9222022949872657e-02
         - 5.8723606856603786e-02
         - -5.3725003797325893e-02
         - 1.9126717357402113e-02
         - -3.6004495002736878e-02
         - -5.8653656880679930e-02
         - -4.2803507726097742e-02
         - 1.2897816469722705e-02
         - 3.4053450615744475e-02
         - -4.6083265637874619e-02
         - -3.3714747087191764e-02
         - -5.0012315483225607e-02
         - -2.6176273752579304e-02
         - -1.5784598129987289e-02
         - -1.3137909085745485e-02
         - -1.0015629282752077e-02
         - 4.1277276212857615e-02
         - 4.7980321826045946e-02
         - 3.9542999137920969e-02
         - 9.0760226201210756e-03
         - 9.8158321854525943e-04
         - 1.7722698675155586e-02
         - -2.1410776004842307e-02
         - 3.3551240350317695e-02
         - 3.2455868675896025e-02
         - 2.8248630431187475e-02
         - -6.6876771638402888e-02
         - 2.1630762920089721e-02
         - -3.3679510855224436e-02
         - 1.7237413672326063e-02
         - 3.2895276591549567e-02
         - 2.4162362255227738e-02
         - 4.2544082957800171e-03
         - -2.5206614761198187e-02
         - 3.9626892873307763e-02
         - -6.8524186244270314e-04
         - 7.4518965617996983e-03
         - 2.9063178816944996e-02
         - 1.0387321725665513e-02
         - -2.8335516154587896e-02
         - 3.5490831531227507e-02
         - -2.2659228526888325e-02
         - -2.6647801108697831e-02
         - -1.4686745352525232e-02
         - -4.6745237529922122e-02
         - -4.4792034858310133e-02
         - 3.3292174344722113e-02
         - 2.8609505272938183e-02
         - 4.0543118697086086e-02
         - -1.8871315712840973e-02
         - 3.5477180231931610e-02
         - 3.8717197822077547e-02
         - -1.5311967506830700e-03
         - -3.4359928172174592e-02
         - -2.7397460448102970e-02
         - -6.4318499138954065e-04
         - -2.0216528518066164e-02
         - -2.1786499896725212e-02
         - 6.1548227995561547e-03
         - -3.0867149037826079e-02
         - 2.8727486719481950e-02
         - 4.0739388813069904e-02
         - -5.3954810058675057e-02
         - 2.2935945640770360e-02
         - -1.9698982985588216e-02
         - -4.5939021977518223e-02
         - -4.1465604645774319e-02
         - 1.3252518423776222e-02
         - 3.1584859878753938e-02
         - -2.6858587494805873e-02
         - -3.0838435460102901e-02
         - -3.6992247920397951e-02
         - -2.3164615799104806e-02
         - -2.7312382332995912e-02
         - -1.6681381017899743e-02
         - 7.7781776068162924e-03
         - 3.3776581996181727e-02
         - 2.1372328953192989e-02
         - 3.3599507794243692e-02
         - 1.6965066639998732e-02
         - -6.4661707774201207e-03
         - 1.6253924317763877e-02
         - -1.5440476254538671e-02
         - 1.0868165551047842e-02
         - 2.5870717218926732e-02
         - 1.3814282346237878e-02
         - -4.6759757182678226e-02
         - 1.6186533161765507e-02
         - 1.8144931454366340e-03
         - 1.0420408945871254e-02
         - 1.6131627983903118e-02
         - 2.8044438741251138e-02
         - -4.9236440929310904e-03
         - -3.1276607101141100e-02
         - 3.2342176797021893e-02
         - 1.6549716723085101e-02
         - 1.0011742601839690e-02
         - 3.9479623053526019e-03
         - -1.4451976803424605e-02
         - -6.1162458900571827e-03
         - 1.7980501313578499e-02
         - -1.1640671295678844e-02
         - -1.8391970916592136e-02
         - -2.2366998278643344e-02
         - -3.3445212324549195e-02
         - -2.0142880173063246e-02
         - 1.8911091135003392e-02
         - 2.8512945361841898e-02
         - 2.6807954649299189e-02
         - -3.6590950512109021e-03
         - 3.2607431903284065e-02
         - 2.2376968812528843e-02
         - -1.4980033339972073e-02
         - 8.8192112494956190e-03
         - -1.5619354638438721e-02
         - 2.4272028560234710e-02
         - -3.1260848191259877e-02
         - -1.7233748115324840e-02
         - -2.7665573192169751e-02
         - -2.9939048940219828e-02
         - -5.5425037699274966e-03
         - 5.9280138221556927e-03
         - 3.6398564255253771e-02
         - 2.1963498138748337e-02
         - -1.1696078309008958e-02
         - -1.5688413237693558e-02
         - -2.4583632843170628e-02
         - 2.1427765812407580e-02
         - 5.8148997616307352e-03
         - -1.9341366935863608e-02
         - -1.5844392322624801e-02
         - -2.9112141889268910e-02
         - -2.6365022009849082e-02
         - -7.1915478304246166e-03
         - 2.0738690544927344e-03
         - 2.2171289560848847e-02
         - 1.2183905791093642e-02
         - -2.3023829449851973e-03
         - 2.7990505156974051e-02
         - -4.4867247842750504e-03
         - 1.6842412525217851e-03
         - 9.1140457867367394e-03
         - -1.5821110773325452e-02
         - 6.5453546301373508e-05
         - 1.1431245980861270e-02
         - 2.9935126625107580e-02
         - -2.6656636234369697e-04
         - -1.2541193204669756e-02
         - -2.8293389779926306e-02
         - 2.5149260769776003e-02
         - 4.1829816956352746e-02
         - 3.1267805312048598e-02
         - 1.7702230957557293e-02
         - -4.1419355137636872e-02
         - 5.0217491807214798e-02
         - -1.8381802048022325e-03
         - 1.1452234107216219e-02
         - 3.2043008645507402e-02
         - 1.8583514179849905e-02
         - -3.8502557520009792e-02
         - 2.1537584158585237e-02
         - -2.4646095172175139e-02
         - -3.9973847084991548e-02
         - -1.3961043786676616e-02
         - -3.9877943660626233e-02
         - -3.8129190193091078e-02
         - 4.3271046568095398e-02
         - 3.4185127348316406e-02
         - 3.9733784233459732e-02
         - -2.2950803689747229e-03
         - 2.1803660101587640e-02
         - 3.2611273705641389e-02
         - -2.5231338716415440e-03
         - -2.9895332214979489e-02
         - -2.5570642200915931e-02
         - 2.1925214348383633e-02
         - -4.6532943051283811e-02
         - -4.0159514248009051e-02
         - 5.6286648638343168e-03
         - -3.4240750775797059e-02
         - 3.0830658104798073e-02
         - 2.9052072776187227e-02
         - -5.7884865659001243e-02
         - 2.5532642523309647e-02
         - -1.1007334536516779e-02
         - -3.3624985868241870e-02
         - -3.7332338814871587e-02
         - 2.0679061063092027e-02
         - 2.0146326000027470e-02
         - -4.2081647634855564e-02
         - -4.0937740739602692e-02
         - -3.9612460879366339e-02
         - -3.9835232627761202e-02
         - -2.7154605320140690e-02
         - -1.5405169205881543e-02
         - 1.3017683987064318e-02
         - 2.7444913901789186e-02
         - 3.1766165353723390e-02
         - 3.2929448053013538e-02
         - 2.7513646316071365e-03
         - -1.3904946127227527e-02
         - 3.3734408657382711e-02
         - -2.8721434530655215e-02
         - 2.1415213481812582e-02
         - 2.6754009733972718e-02
         - 2.8164047483061481e-02
         - -4.7998541327787553e-02
         - 4.0018964826850651e-03
         - 2.0512241244830631e-03
         - 2.4800644100384895e-02
         - 4.0667335686344286e-02
         - 4.4154184439288195e-02
         - 1.6311764895958061e-02
         - -4.2168854414997167e-02
         - 2.7883140548168768e-02
         - 4.3080504661323071e-03
         - 1.2756483421212598e-03
         - 2.2257529011534587e-02
         - 8.3096295232346767e-03
         - -2.4629295197370525e-02
         - 2.4848757067186061e-02
         - -2.0088311336888501e-02
         - -3.1456045773069263e-02
         - -3.9990200334683893e-03
         - -4.5671798823422406e-02
         - -3.3879813628850092e-02
         - 4.2197911081099285e-02
         - 3.4618983318929118e-02
         - 4.4851972765310624e-02
         - -6.3134297544577313e-03
         - 3.0993601739593441e-02
         - 3.8035458938935555e-02
         - -1.0306423096104533e-02
         - -1.5469253191919117e-02
         - -2.5414702547594335e-02
         - 1.8497740140185015e-02
         - -3.0308693597096197e-02
         - -2.3292558445168639e-02
         - -2.1398549551791459e-02
         - -2.8537673030374057e-02
         - 2.0671280425064928e-02
         - 3.4636755310661148e-02
         - -1.8473324674736537e-02
         - 1.6599425277737574e-02
         - -1.2459271068281656e-02
         - -3.2776857111746251e-02
         - -4.2033153722961521e-02
         - 2.4114810013887572e-02
         - 3.2198560700444856e-02
         - -3.9825601022618867e-02
         - -2.7455811587154447e-02
         - -3.0731567401251263e-02
         - -2.5483103718667573e-02
         - -6.9741755639798984e-03
         - -9.1743551586374438e-03
         - 3.3978337931230059e-03
         - 2.8079001264099311e-02
         - 1.1028111725867828e-02
         - 1.9032261584396505e-02
         - 2.6352853562543327e-03
         - 9.4167835878034897e-03
         - 1.7443206927433178e-02
         - -2.6927385694169869e-02
         - -4.7725048227838258e-03
         - 4.2367567280061275e-02
         - 1.9582649330254182e-02
         - -3.0600502244260832e-02
         - 3.3227031878000704e-03
         - -1.9445257398439792e-02
         - 9.1885570258081074e-03
         - 2.2071059504127393e-02
         - 2.3306040134110331e-02
         - 9.3944364781606438e-03
         - -2.7945206253087215e-02
         - 3.6724233562388069e-02
         - 2.0178244738605980e-03
         - 1.2009428950091642e-02
         - 1.8732743542663615e-02
         - 2.1332220270594532e-02
         - -2.1151724692485878e-02
         - 2.2058039265592737e-02
         - -1.7364626726061223e-02
         - -1.2864083902938431e-02
         - -3.1332151646746359e-03
         - -1.9761167106304000e-02
         - -3.0024565954436103e-02
         - 2.3430674664004721e-02
         - 2.2933588034526990e-02
         - 2.8435723687551723e-02
         - 2.4953103566320686e-03
         - 1.7880230199433012e-02
         - 2.9580067770053897e-02
         - -4.5197527513576048e-03
         - -2.4803779885510115e-02
         - -1.7401815690372253e-02
         - 7.2903969412030697e-03
         - -2.3277465075250896e-02
         - -2.9487478970095311e-02
         - -3.7901440777196147e-03
         - -3.0962778877604527e-02
         - 2.2243884586991551e-02
         - 1.5372507440895175e-02
         - -2.2502247313307796e-02
         - 1.1318783502262082e-02
         - -2.2183393778644592e-02
         - -3.6499310057982209e-02
         - -1.2543239027078715e-02
         - -6.4072135586991971e-04
         - 8.6531658483459551e-03
         - -2.9058748635104846e-02
         - -2.9783461923873135e-02
         - -2.4736574979716826e-02
         - -1.4202601934259044e-02
         - -1.3396244236072588e-02
         - -1.9521547868568807e-02
         - -4.0555514913642047e-03
         - 1.6247340182673077e-02
         - 1.1419433314746347e-02
         - 1.4852822867216849e-02
         - 1.1597631399044780e-02
         - -8.8441184758661223e-03
         - 2.5627960235181556e-02
         - -1.2931114991416462e-02
         - 2.0673283924242163e-02
         - 1.4113397564726828e-02
         - 1.4994132393437557e-02
         - -1.9600498577750081e-02
         - 7.4116664123459626e-04
         - -1.3862624083414916e-02
         - 3.0211272899947132e-02
         - 3.4611416825344167e-02
         - 6.0795459465607722e-02
         - 4.5806573456431639e-02
         - -3.9963732817220141e-02
         - -1.7534104347537879e-02
         - 4.4929355533624399e-02
         - -8.1085666934033237e-03
         - 4.2235844457180025e-02
         - -3.5157385400842209e-03
         - -4.1765916206828207e-02
         - 5.6525278666890715e-02
         - -3.3268797641262948e-02
         - -3.0936582992126843e-02
         - -1.9986459007173062e-02
         - -4.6927056471393801e-02
         - -3.4176598881016228e-02
         - 7.1583348373420105e-02
         - 4.5702591905987161e-02
         - 3.3588339476675763e-02
         - -1.9898094478450385e-02
         - 3.4316456505613858e-02
         - 4.8302591702049626e-02
         - 2.2288530691622756e-02
         - 4.3679343852301392e-02
         - -5.4526956343592947e-02
         - -6.4398615900366175e-03
         - -2.6404716691307468e-02
         - -3.6762215863415416e-02
         - -4.0470464925581345e-02
         - -4.4637932153931900e-02
         - 4.4379497297475756e-02
         - 4.2810571695737550e-02
         - -3.8125972854182795e-02
         - 5.9806494209504457e-03
         - -3.6615594610771497e-02
         - -5.5496047220366274e-02
         - -4.0791388036449001e-02
         - -3.6760493265729083e-02
         - 1.9445736352124890e-02
         - -4.9565402958301481e-02
         - -2.1002968819397758e-02
         - 7.8641860062423716e-03
         - 1.4069496564954884e-04
         - 1.3576463300194356e-02
         - 1.7323313369411092e-02
         - -4.1910360963226694e-02
         - 3.9284629199613327e-02
         - 3.7599140511472506e-02
         - 2.3366996183022432e-02
         - -4.0066526686971856e-03
         - 2.5026355860996965e-02
         - -3.4498527864082897e-02
         - -4.5945286725964228e-02
         - 3.6213471368397795e-02
         - 4.7844546742601191e-02
         - 4.8441023953837467e-02
         - -3.2047945230324323e-02
         - 2.4438942389433681e-02
         - -3.9886531659252015e-03
         - 2.0571100694746963e-02
         - 1.8764896310349513e-02
         - 1.7912026029934587e-02
         - 2.5641779608860577e-03
         - -1.1885307590216611e-02
         - 1.3635788569712036e-02
         - 5.1342748133310547e-03
         - -2.5692378530158622e-03
         - 5.7287272333424412e-03
         - 1.2514894322013816e-03
         - -9.1231870965369968e-03
         - 1.4915871546965515e-02
         - -1.6302192579945828e-02
         - -1.8338029205507200e-02
         - 2.6795573091971171e-03
         - -1.3093371686785045e-02
         - -1.9329432103530050e-02
         - 3.5885023362789938e-04
         - 1.6608822573262294e-02
         - 2.1133173897561888e-02
         - -8.3464183476413753e-03
         - 8.1338125546393265e-03
         - 2.2373056509724449e-02
         - 7.0319546267786758e-03
         - -1.3228927253241977e-02
         - -1.5885878849214646e-02
         - -3.5423372309714481e-03
         - -1.4708448084945237e-02
         - -1.7501392186590085e-02
         - -7.8082616711921248e-03
         - -1.7839037731413154e-02
         - 2.1468591624273271e-02
         - 4.9593720732219841e-03
         - -2.5169981921178908e-02
         - 3.9801889262729619e-03
         - -1.5614904267891833e-02
         - -1.5312831996808288e-02
         - -3.2027120538474854e-03
         - 1.8535570706201566e-04
         - 1.6510072208586087e-02
         - -5.6121284521041042e-03
         - -1.6078145650883165e-02
         - -2.1073360558288168e-02
         - -1.7950677977202460e-02
         - -1.4391102728187501e-02
         - -1.5765090914581167e-02
         - -1.3029607379181126e-02
         - 3.7428004375054699e-03
         - 4.3696062439025230e-03
         - 1.8733970033302270e-02
         - -4.2930777519413965e-03
         - -5.3636319909301736e-03
         - 1.9401720092248262e-02
         - -2.0463681157827397e-04
         - 2.2717922331698249e-03
         - 2.7753405244696399e-03
         - 4.4331360032571262e-03
         - -1.8961094473945971e-02
         - 3.6836796157131554e-03
         - -2.6629799859424104e-02
         - 1.4414200417031380e-02
         - 1.7656806597097150e-02
         - 3.1367286359031687e-02
         - -2.8160442265989295e-04
         - -3.0095319205664016e-02
         - 3.3478919816811926e-02
         - 3.4216771580044831e-04
         - 7.0179196333080614e-03
         - 2.1957885236212133e-02
         - 2.3251422837365341e-02
         - -1.4343616306919799e-02
         - 1.2821325762948876e-02
         - -1.4693604877191008e-02
         - -1.8610796086762318e-02
         - -4.9932048394090243e-03
         - -1.9699055712260116e-02
         - -2.1259235123702661e-02
         - 2.2746195869705190e-02
         - 1.8493276440759807e-02
         - 1.4190065930128490e-02
         - 2.2211276399166863e-03
         - 1.8629737189625416e-02
         - 2.4587679858171247e-02
         - 9.0225159190162139e-03
         - -3.4845084596908348e-02
         - -9.3681575934510264e-03
         - -2.5515846644987819e-03
         - -3.4221828147817636e-02
         - -3.1250458493701977e-02
         - 1.8414524961144953e-02
         - -9.7126042968855939e-03
         - 9.2009820614017621e-03
         - 3.2359179890838828e-02
         - -7.8157799930618901e-02
         - 1.8572428278766206e-02
         - -1.0179744826167687e-02
         - -1.5737931710021563e-02
         - -3.4132667182607108e-02
         - 2.7178698408632375e-03
         - 1.9442143135308249e-02
         - -2.3998102075944654e-02
         - -2.3447465077337155e-02
         - -3.1000995193813868e-02
         - -1.9335849248819682e-02
         - -1.2458479048140771e-02
         - -2.0990465626196352e-02
         - 1.8032277670593569e-03
         - 1.3402500348416157e-02
         - 2.6715212569810829e-02
         - 2.0100797958733287e-02
         - 3.5087702574493378e-04
         - -6.6966389129518361e-03
         - 3.2696428819515441e-02
         - 2.6199182355951429e-03
         - 2.0252677712331156e-02
         - 1.9268378767064515e-02
         - 7.7596419121391371e-03
         - -3.6696832650795999e-02
         - 1.5578328924758826e-02
         - -2.1664975328809739e-02
         - 1.2948747224025408e-02
         - 3.9531410199822307e-02
         - 3.2558966594826669e-02
         - 2.0052760847001853e-02
         - -2.6702419141070646e-02
         - 2.7126167311290191e-02
         - -4.8579194219754374e-04
         - 5.3559986517096080e-03
         - 3.0442613052084122e-02
         - 3.0257255367595232e-02
         - -2.4813372108806318e-02
         - 3.4874576789119982e-02
         - -2.0772097100472391e-02
         - -4.2058459368937914e-02
         - -2.9824544957526150e-03
         - -4.8487993425963924e-02
         - -3.3551724888702054e-02
         - 5.3358089836369492e-02
         - 4.6145421726768450e-02
         - 3.4829694074079744e-02
         - -7.6758653014625169e-03
         - 1.9709839541678733e-02
         - 2.3235788271398456e-02
         - -9.9746281438315432e-05
         - -2.9858358390597993e-02
         - -3.4077846744502358e-02
         - 9.9007015888119662e-04
         - -2.9631814250169950e-02
         - -3.8066968527290940e-02
         - -3.9852968168094961e-03
         - -3.1633228588962524e-02
         - 2.1311036635494825e-02
         - 2.9840862738416126e-02
         - -6.4629236424109962e-02
         - 2.3214782431132820e-02
         - -2.2846302405825521e-02
         - -3.5947059780669477e-02
         - -2.4786833328222499e-02
         - 7.2940878084005976e-03
         - 1.9153485370955910e-02
         - -4.2168823541726887e-02
         - -1.9231177085993284e-02
         - -2.6187498878307187e-02
         - -3.1545259546123576e-02
         - -1.9511591678328173e-02
         - -1.2028599153215209e-02
         - -5.4682187730296416e-03
         - 3.2643893691088312e-02
         - 2.6243220866214164e-02
         - 1.5398749036487139e-02
         - 2.1148544000267663e-02
         - -1.1977029670697758e-02
         - 3.0388995338380884e-02
         - -1.8447225934805182e-02
         - 1.6622361356382953e-02
         - 3.6334668989335538e-02
         - 2.7995545626088240e-02
         - -3.5673899831613343e-02
         - 3.4758312427747478e-03
         - -1.3622924089156052e-02
         - 1.9530235490232882e-02
         - 1.5915359413244252e-02
         - 1.7621918331551432e-02
         - 6.4242951954652855e-03
         - -1.6110587731730738e-02
         - 1.9165931909406516e-02
         - -7.6947843802305247e-03
         - 1.1712687982563992e-03
         - 2.5894524661297127e-02
         - 1.6175619273973929e-02
         - -1.2529033075451531e-02
         - 2.9881415544141202e-02
         - -1.0066442809395334e-02
         - -2.8067344224721708e-02
         - -1.5033999865845794e-02
         - -2.0640917088543997e-02
         - -2.3828774658668950e-02
         - 1.5854696150840678e-02
         - 1.8802664387320814e-02
         - 2.7154605406422474e-02
         - 1.0865357809273554e-03
         - 2.7628193883154128e-02
         - 2.8050386765343830e-02
         - 8.3777741503916030e-03
         - -4.6675818912875018e-03
         - -1.1641797405621535e-02
         - 1.3092528884337748e-02
         - -3.1189144283286379e-02
         - -2.5951810454444182e-02
         - -4.9805874901536788e-03
         - -1.4164195534933288e-02
         - 1.5187023169724624e-02
         - 2.6302283368429859e-02
         - -3.9068322643460003e-02
         - 1.8102225176647928e-02
         - -1.6055943059099523e-02
         - -2.8213974293720617e-02
         - -1.3565011826006168e-02
         - 7.8113566809847306e-03
         - 1.3820473025954736e-02
         - -2.3972080389005307e-02
         - -1.7924080670261449e-02
         - -2.0043204220547482e-02
         - -8.8372993687456328e-03
         - -9.0962529373693375e-03
         - -1.9054923477744148e-02
         - -1.4671020678699867e-02
         - 2.4229977251344348e-02
         - 1.7736245834143301e-02
         - 1.8491640220302228e-02
         - -1.7448355601740275e-03
         - -7.7533924456583952e-03
         - 1.4400972340704515e-02
         - 2.7645517725307056e-04
         - 3.7539686203668697e-03
         - 8.2370267717453583e-03
         - 6.8063583085133991e-03
         - -2.4566286214502249e-02
         - -1.3692613726493678e-03
         - -2.8893603195620943e-02
         - 1.2140871792270160e-02
         - 4.1476456279355201e-02
         - 3.1988495369468586e-02
         - 1.2347507434541473e-02
         - -2.7202232948331819e-02
         - 4.2412095748924614e-02
         - -7.9935205163130050e-03
         - 1.6081512979287817e-02
         - 2.5133914305861170e-02
         - 2.2680842570782948e-02
         - -3.3760546131458721e-02
         - 3.7642665576955586e-02
         - -2.3498510533599550e-02
         - -2.4121124872168075e-02
         - -1.2043249131298398e-02
         - -4.2028774507823809e-02
         - -4.0380164189927542e-02
         - 4.3401446605267333e-02
         - 3.4234364045655379e-02
         - 3.3104133914127296e-02
         - -2.0905722392077289e-02
         - 2.3174849097084359e-02
         - 3.8758192126263073e-02
         - 6.2990289835288520e-03
         - -1.9279294166779478e-02
         - -3.6456954441934371e-02
         - -4.0766317332499727e-03
         - -1.6323762387841938e-02
         - -3.4293836412232326e-02
         - -4.5551949435042403e-04
         - -2.3946438428762037e-02
         - 2.2955461803700197e-02
         - 3.4417085007605513e-02
         - -4.7176444072972931e-02
         - 1.1775893475032910e-02
         - -2.2938344483167235e-02
         - -4.4016707688525294e-02
         - -2.9122581518539480e-02
         - -3.2280842831003479e-04
         - 3.2776072726817318e-02
         - -3.1630175460860159e-02
         - -2.9087804614059642e-02
         - -2.4489750565163847e-02
         - -3.8105839414187472e-02
         - -5.2646109338954378e-03
         - -1.7793891230154287e-02
         - -2.2016430314280227e-02
         - 3.3965192504621738e-02
         - 2.8741332638994175e-02
         - 1.3911989537792928e-02
         - 1.6953223467109816e-02
         - -1.0261094847146967e-02
         - 2.5647089919038531e-02
         - -2.8610852528521784e-02
         - 1.3690313346181532e-02
         - 3.1259696251069849e-02
         - 2.1634639766817988e-02
         - -4.8350571723847671e-02
         - 1.8224215782017338e-02
         - -3.2244019349656636e-02
         - 2.4809640037173446e-03
         - 2.5035124332356263e-02
         - 3.1799368917981775e-02
         - 9.5152609642885615e-03
         - -8.3755494900085263e-03
         - 2.2681666020899986e-02
         - -7.3533283033089334e-04
         - 8.7700490250568787e-03
         - 2.5137875639425572e-02
         - 2.4530765274872149e-02
         - -3.0723965900865357e-02
         - 2.4832518021292330e-02
         - -2.5524498499020585e-02
         - -3.3913659862789151e-02
         - -1.2285800613042422e-02
         - -2.9172110866068430e-02
         - -3.0298523244623912e-02
         - 3.6161134533217960e-02
         - 3.2845152839874749e-02
         - 3.9604956125962591e-02
         - -8.5265383456103200e-03
         - 5.3445446712020693e-03
         - 3.1126246093638274e-02
         - -5.7553801466115259e-03
         - -2.9489030509268425e-02
         - -1.8926566607235774e-02
         - -1.3217997798788024e-03
         - -1.0403623570502325e-02
         - -1.9696686882529731e-02
         - 5.6179663600553825e-03
         - -3.0287908542724767e-02
         - 2.0441087903630570e-02
         - 1.8390165378336799e-02
         - -8.2393529990686651e-02
         - 9.1293002066480649e-03
         - -2.8601030751617535e-02
         - -3.7610530040013745e-02
         - -2.6658969271553239e-02
         - 7.0963970597086902e-03
         - 1.0227542980211345e-02
         - -3.2571330411569586e-02
         - -1.1733872504406715e-02
         - -2.2836662077195442e-02
         - -2.1540415834408435e-02
         - -6.0167148601679475e-03
         - -1.2059447347595606e-02
         - -5.5095384267327806e-03
         - 1.3804096937423823e-02
         - 1.7377659007280069e-02
         - 9.3044608223407359e-03
         - 1.6583016058036224e-02
         - -1.7662530731469315e-02
         - 1.6798036539613679e-02
         - -5.6037118492263099e-03
         - 1.5857362354933020e-02
         - 2.2018339880409368e-02
         - 1.5803106579559460e-02
         - -3.0998501661798405e-02
         - 2.1249480398642606e-02
         - -1.2157605283304073e-02
         - 2.3136664888015045e-02
         - 3.0001690227105689e-02
         - 2.8466002629190183e-02
         - -6.3286718481900050e-05
         - -3.0355757292227701e-02
         - 2.4627095130186256e-02
         - -1.1173504786015814e-02
         - 1.5216515999445353e-02
         - 1.2283948083007359e-02
         - 2.3332485995241369e-02
         - -1.8631976443651360e-02
         - 2.9526562843186471e-02
         - -9.6078702606340917e-03
         - -2.7133839609268403e-02
         - -1.4385971374588809e-02
         - -1.6934935243549630e-02
         - -2.2613937128710435e-02
         - 1.7388616911768406e-02
         - 2.0607523649544934e-02
         - 2.1538964732067147e-02
         - 4.3897475039011277e-03
         - 1.0407836246564172e-02
         - 1.7729488024483629e-02
         - 8.5999051723873517e-04
         - -1.6048305540216343e-02
         - -7.5729489027722089e-03
         - 2.0672587744783606e-02
         - -1.6884384795796268e-02
         - -1.3326913385098929e-02
         - 1.2153369064423316e-02
         - -1.2564178487307813e-02
         - 1.8621521132555410e-02
         - 2.8313268267037516e-02
         - -4.0482042332445581e-02
         - 3.7322693327757577e-04
         - -1.3492772777238723e-02
         - -1.6485284689395509e-02
         - -1.4880252460426504e-02
         - 1.3104388552386359e-02
         - 1.1863420299027743e-02
         - -1.4068606760221885e-02
         - -1.3997768428116942e-02
         - -1.8888610656649932e-02
         - -1.9629772153775687e-02
         - -2.8361972766065734e-02
         - -2.4498765104139966e-02
         - 5.3475109569709623e-03
         - 1.4210748125706664e-02
         - 2.2504234744649489e-02
         - 1.4240499438717481e-02
         - 1.0460112129576257e-02
         - -9.3975816273580218e-03
         - 1.4532279901102396e-02
         - -3.5192680280904873e-03
         - 1.4441798218820849e-02
         - 1.4892772681516293e-02
         - 1.7717753953131066e-02
         - -3.4028689023405230e-02
         - 2.1419145473657624e-02
         - -2.9248059804699366e-02
         - 1.1499181629226984e-02
         - 2.3055362166625765e-02
         - 7.3263403931618067e-03
         - 2.7890967661999087e-03
         - 4.3462758082556544e-03
         - 1.1985166124959638e-02
         - -1.2450382015308037e-02
         - -8.8571030437382785e-03
         - 8.3275826101124866e-03
         - 3.5071485585246170e-02
         - -8.0752876164711922e-03
         - 5.2980037289533152e-03
         - -2.5067378211486326e-02
         - -1.5235940567877587e-02
         - 3.1085945717115424e-03
         - -3.5387409630260297e-02
         - -2.2080947401212143e-02
         - 4.0545879174749534e-02
         - 1.9432801493946161e-02
         - 3.0491280141052752e-02
         - -8.2505995383600639e-03
         - 1.1293241770701909e-02
         - 2.9360768670734727e-02
         - 3.3658772812239657e-03
         - -3.4963208944308266e-02
         - -2.8282013591133279e-02
         - 5.3698488119022409e-04
         - -1.0098181966039173e-02
         - -1.7432902221760783e-02
         - 1.6300631352033409e-02
         - -1.2064535645117952e-02
         - 1.9585609172861302e-02
         - 2.2210451648492092e-02
         - -2.2852617530984887e-01
         - 9.9730412937325975e-03
         - -6.6600576996405847e-03
         - -3.5506962433142712e-02
         - -2.8163156860909033e-02
         - -2.8993069948935837e-03
         - 9.9560046931374529e-03
         - -1.2723503522469985e-02
         - 3.5455814669189557e-03
         - -5.7760107671711702e-03
         - -1.9489014039871192e-02
         - -2.2492811067165882e-02
         - -7.0910779183761159e-03
         - -9.9185209446072641e-03
         - 2.2182809612886132e-02
         - 3.7583075688600920e-02
         - -5.4816496456727053e-03
         - 1.1491560494706158e-02
         - -1.0884369107919407e-02
         - 1.2411178965031902e-02
         - 1.2253160043496638e-02
         - 1.2018262879546431e-02
         - -1.9063557821493613e-03
         - -3.6976368984939917e-03
         - -2.4681549094462536e-02
         - 1.6700429774142156e-02
         - -1.1752677716306791e-02
         - 2.5290958243197256e-02
         - 3.9139079605426050e-02
         - 2.0578613699986849e-02
         - 1.5177919703758695e-02
         - -3.5481322719035570e-02
         - 3.8982819414970685e-02
         - 7.6426350687422021e-03
         - 7.1163457324934605e-03
         - 3.4001878195214261e-02
         - 8.3423151760000456e-03
         - -2.2802024257030692e-02
         - 2.5293586521385459e-02
         - -2.1370318996798952e-02
         - -2.5560668804967584e-02
         - -5.3312744434338829e-03
         - -3.0195389101262047e-02
         - -1.9508630013654403e-02
         - 4.2620372564396700e-02
         - 3.2173834940453748e-02
         - 2.4334957671042282e-02
         - -2.1651383411681888e-03
         - 1.6120709866699761e-02
         - 3.5345218092827105e-02
         - -6.6248484027075210e-03
         - -2.6879889736681966e-02
         - -1.6461227707151270e-02
         - 9.6571183178750693e-03
         - -3.5700049560704841e-02
         - -2.6089464771922574e-02
         - -2.2492677262154130e-03
         - -1.8834785670987893e-02
         - 1.7079733896270943e-02
         - 2.8599500735189822e-02
         - -3.7905064758398374e-02
         - 2.4030193645082729e-02
         - -2.0076515473106384e-02
         - -3.5581305774467338e-02
         - -2.7856924229434196e-02
         - -3.9819561794121659e-04
         - 3.1498986399298441e-02
         - -3.3153131208572724e-02
         - -3.3656961588654319e-02
         - -2.3176979363856685e-02
         - -3.4793128846356075e-02
         - -2.4030147192656913e-02
         - -6.2658928337211810e-03
         - 3.3296850590440342e-03
         - 2.3192769019187615e-02
         - 2.6970244813852538e-02
         - 2.4777399133016749e-02
         - 1.6741546824937583e-02
         - -1.2040821970167771e-02
         - 2.5620319788513587e-02
         - -1.5719422213715292e-02
         - 8.5462521610073644e-03
         - 1.8985528014173247e-02
         - 2.6065907343019827e-02
         - -3.1985091950735865e-02
         - 1.6490346943211324e-02
         - -3.4930030727571573e-02
         - 3.2307566888692740e-02
         - 4.7722359756419572e-02
         - 3.6660873068431118e-02
         - 2.2951482264806828e-02
         - -2.1817487278634258e-02
         - 3.6618475206924739e-02
         - -2.8857977456220648e-03
         - 1.9088428232862789e-02
         - 2.7773496606903064e-02
         - 1.6152805922446795e-02
         - -4.0650495082654593e-02
         - 2.5392112175170643e-02
         - -3.4354318163254911e-02
         - -4.2319442243571218e-02
         - -1.1953372501122172e-02
         - -5.4206032285543534e-02
         - -4.1477632136584758e-02
         - 5.6316752411723556e-02
         - 5.6960334524675728e-02
         - 6.5639848114668178e-02
         - -1.5456416521170559e-02
         - 1.9234944238643747e-02
         - 3.8186884791114921e-02
         - 1.1688949986921710e-02
         - -1.5588209972667822e-02
         - -5.3037397020270556e-02
         - -6.2595668480600192e-03
         - -3.9310020430240220e-02
         - -3.7816015909390231e-02
         - 1.2177351482931593e-02
         - -3.3798284529924026e-02
         - 2.5947191875769222e-02
         - 4.8414764609729141e-02
         - -4.3981924026558837e-02
         - 7.0517019854224663e-03
         - -3.3613757112085606e-02
         - -4.7293781089906395e-02
         - -4.3278483729569620e-02
         - 1.8193321396036476e-02
         - 1.6139382845672654e-02
         - -3.5932582019425695e-02
         - -1.6333112774445695e-02
         - -3.8470415397123182e-02
         - -2.8351762351307215e-02
         - -1.8666304931145645e-02
         - 1.3504092823914988e-03
         - -2.6699626989094793e-02
         - 3.2000668521507777e-02
         - 2.2678173821616653e-02
         - 1.5298828942265726e-02
         - 1.0214614573142730e-02
         - -5.7681640955610756e-03
         - 1.1589823338319025e-02
         - -2.0990578155282723e-02
         - 3.0449356843524372e-02
         - 3.5096905169732039e-02
         - 2.6522723276965261e-02
         - -6.0470915978033488e-02
         - 1.6191951582347000e-02
         - -3.4375403383480149e-02
         - 1.4166759506748880e-02
         - 2.7853966567023308e-02
         - 3.7422747715344873e-02
         - 3.0682763302818390e-02
         - -3.3898365188758724e-02
         - 3.8079194644861633e-02
         - -1.2959798545629051e-03
         - 2.4162531709295615e-04
         - 2.4131649883787555e-02
         - 2.2159633033951472e-02
         - -2.7877211179898824e-02
         - 4.2564653988798350e-02
         - -1.4027955063805596e-02
         - -2.7475332650331735e-02
         - -7.6490230929789193e-03
         - -5.0207441773509096e-02
         - -2.9105353698776620e-02
         - 4.1071616465640504e-02
         - 4.7580598946807537e-02
         - 5.4015694860548295e-02
         - -1.7181148514665578e-02
         - 2.7266118891691560e-02
         - 2.4433172700138287e-02
         - -8.2952530505328911e-03
         - -1.7588603740306456e-02
         - -3.8010077265295733e-02
         - 1.5822689211613672e-02
         - -3.7718104521055236e-02
         - -3.2368067316512567e-02
         - -3.0229643090491833e-03
         - -2.9505598506848928e-02
         - 3.3349246630965938e-02
         - 4.6152163524664669e-02
         - -5.5143146138925250e-02
         - 1.2216611782324872e-02
         - -3.1761849896371951e-02
         - -5.1361630074857091e-02
         - -4.0064507361897483e-02
         - 4.7249700087675581e-03
         - 2.1361334674871748e-02
         - -4.2413210816200961e-02
         - -2.7368097857531342e-02
         - -4.0598311235781386e-02
         - -2.7877402800427224e-02
         - -1.4815732935829449e-02
         - -1.0375531976763473e-02
         - -1.3480694856479748e-02
         - 3.0279677318893264e-02
         - 2.3637125437549703e-02
         - 1.3386185653318065e-02
         - 1.6241021561683305e-02
         - -9.6339907417250376e-03
         - 1.9832556911000040e-02
         - -2.4950325770918991e-02
         - 1.8328610308050067e-02
         - 1.7836676720409981e-02
         - 3.1915524784393530e-02
         - -5.3281028491427081e-02
         - 2.0866025274870904e-02
         - -5.5994294310014667e-03
         - 1.7445898843131191e-02
         - 9.5330093022486136e-03
         - 2.1283959702248743e-02
         - 1.0418626076151601e-02
         - -1.9844932825005438e-02
         - 1.1975772681382089e-02
         - -1.6171295494532487e-03
         - 8.9155462565260000e-03
         - 1.6873299484501860e-02
         - 1.7303436100830474e-02
         - -1.7768789477606711e-02
         - 1.4254771166651456e-02
         - -4.0950295230550290e-03
         - -1.1959253868444158e-02
         - 5.5419091727659329e-03
         - -2.0739426863980719e-02
         - -2.1658204631474502e-02
         - 2.4223943845214056e-02
         - 9.0063815664125219e-03
         - 1.1271310426346538e-02
         - 5.3050149699832693e-03
         - 4.9511195157345153e-03
         - 1.9057170791202775e-02
         - 3.2245337618551592e-03
         - -5.0827635822800641e-03
         - -1.4560861253889754e-02
         - 5.3152817060475336e-03
         - -2.4995702172180157e-03
         - -6.6535727668140688e-03
